{"learner":{"attributes":{"best_iteration":"200","best_score":"53419.46923869701","scikit_learn":"{\"_estimator_type\": \"regressor\"}"},"feature_names":["Brand","CPU_Tier","CPU_Gen","RAM_GB","Storage_GB","Storage_Type","Has_Dedicated_GPU","Condition","Location","Is_Member"],"feature_types":["c","c","c","float","float","c","int","c","c","int"],"gradient_booster":{"model":{"gbtree_model_param":{"num_parallel_tree":"1","num_trees":"221"},"iteration_indptr":[0,1,2,3,4,5,6,7,8,9,10,11,12,13,14,15,16,17,18,19,20,21,22,23,24,25,26,27,28,29,30,31,32,33,34,35,36,37,38,39,40,41,42,43,44,45,46,47,48,49,50,51,52,53,54,55,56,57,58,59,60,61,62,63,64,65,66,67,68,69,70,71,72,73,74,75,76,77,78,79,80,81,82,83,84,85,86,87,88,89,90,91,92,93,94,95,96,97,98,99,100,101,102,103,104,105,106,107,108,109,110,111,112,113,114,115,116,117,118,119,120,121,122,123,124,125,126,127,128,129,130,131,132,133,134,135,136,137,138,139,140,141,142,143,144,145,146,147,148,149,150,151,152,153,154,155,156,157,158,159,160,161,162,163,164,165,166,167,168,169,170,171,172,173,174,175,176,177,178,179,180,181,182,183,184,185,186,187,188,189,190,191,192,193,194,195,196,197,198,199,200,201,202,203,204,205,206,207,208,209,210,211,212,213,214,215,216,217,218,219,220,221],"tree_info":[0,0,0,0,0,0,0,0,0,0,0,0,0,0,0,0,0,0,0,0,0,0,0,0,0,0,0,0,0,0,0,0,0,0,0,0,0,0,0,0,0,0,0,0,0,0,0,0,0,0,0,0,0,0,0,0,0,0,0,0,0,0,0,0,0,0,0,0,0,0,0,0,0,0,0,0,0,0,0,0,0,0,0,0,0,0,0,0,0,0,0,0,0,0,0,0,0,0,0,0,0,0,0,0,0,0,0,0,0,0,0,0,0,0,0,0,0,0,0,0,0,0,0,0,0,0,0,0,0,0,0,0,0,0,0,0,0,0,0,0,0,0,0,0,0,0,0,0,0,0,0,0,0,0,0,0,0,0,0,0,0,0,0,0,0,0,0,0,0,0,0,0,0,0,0,0,0,0,0,0,0,0,0,0,0,0,0,0,0,0,0,0,0,0,0,0,0,0,0,0,0,0,0,0,0,0,0,0,0,0,0,0,0,0,0,0,0,0,0,0,0],"trees":[{"base_weights":[-1.7800143E3,-2.1495838E4,1.361342E5,1.955431E5,-2.8974627E4,2.4118862E5,5.5547125E4,1.5530612E5,2.9555647E5,-9.041243E3,-8.028139E4,2.985103E5,-1.354836E4,1.3131092E5,1.1091961E4,2.7534932E3,1.6608253E5,1.7760727E4,6.219062E3,-2.1053445E4,5.66889E4,-5.6344273E4,-9.287798E4,2.129276E4,2.6514584E5,-4.2418086E4,5.4206848E4,1.04716045E4,1.2238777E5,7.478435E4,-2.4725664E4,1.7099867E5,1.5676183E4,-3.0308459E4,7.25419E3,1.5717303E5,3.2385184E4,-3.9901668E4,-6.3286293E4,-8.086879E4,-5.004308E3,1.3995516E5,2.860752E5,1.4385705E4,-5.165794E4,3.9601711E3,2.4341895E4,1.2478682E5,2.4004102E3,-1.9588582E4,8.323287E4,4.737267E3,-4.898001E4,9.28713E3,6.8088203E3,1.4003568E3,-2.2464317E2,6.2191254E2,-1.9084316E3,-1.3538402E3,1.1940109E3,2.9151719E3,1.2531144E4,2.1089739E3,2.720115E1,-2.2370212E3,-1.4745172E3,-3.2771914E3,-2.438544E3,-1.5942906E2,-4.1279263E3,1.7005709E3,8.3897705E3,-1.6828577E3,1.4665653E4,2.0253568E3,-3.911909E2,-4.7464316E2,-2.6688767E3,1.7535684E2,1.390371E3,6.335282E3,3.0005352E3,-2.3714317E2,-1.1057147E3,7.642275E3,2.8858315E3,2.080445E3,-2.336826E3,-2.8864104E3,-9.820335E2],"categories":[0,4,5,8,9,10,12,13,14,15,17,0,1,2,3,4,5,8,9,12,13,14,15,0,8,10,12,13,14,15,18,21,0,1,2,3,7,8,9,10,11,12,13,14,15,16,17,18,20,21,0,1,2,7,8,9,10,11,12,13,14,15,16,17,18,19,20,21,22,0,1,2,4,5,6,8,9,10,11,12,13,14,15,16,17,0,8,10,12,13,14,0,1,2,3,4,5,8,9,10,12,13,14,15,17,0,1,2,3,4,5,7,8,9,10,11,12,13,14,15,16,17,18,19,20,21,22,8,9,13,0,1,2,3,7,8,11,12,13,14,15,16,17,18,19,20,21,22,23,0,1,2,3,4,5,6,7,8,9,10,11,12,13,14,15,16,8,9,8,10,12,1,8,10,12,14,15,18,0,1,3,4,5,6,7,8,9,10,11,12,13,14,15,16,17,18,19,20,21,22,0,1,2,3,5,6,7,8,10,11,12,13,14,15,16,17,18,19,20,21,22,23,1,2,8,10,12,14,15,18,0,1,2,4,5,7,8,9,10,12,13,14,15,17,11,1,2,22,0,1,2,6,8,9,10,11,12,13,14,15,16,17,18,19,20,21,1,3,4,5,6,8,9,10,11,13,20,21,2,4,6,14,0,1,2,3,6,7,8,9,10,11,12,13,14,15,16,17,18,19,20,21,22,14,13],"categories_nodes":[1,2,4,5,6,8,10,11,13,14,16,20,21,22,25,26,28,30,31,32,33,36,39,43,44,47,49,51],"categories_segments":[0,11,23,32,50,69,85,91,105,127,130,149,166,168,171,178,200,222,230,244,245,248,266,278,279,282,303,304],"categories_sizes":[11,12,9,18,19,16,6,14,22,3,19,17,2,3,7,22,22,8,14,1,3,18,12,1,3,21,1,1],"default_left":[0,1,1,1,1,1,1,0,1,1,1,1,1,1,1,0,1,0,0,1,1,1,1,0,0,1,1,0,1,0,1,1,1,1,1,0,1,1,1,1,0,0,0,1,1,0,0,1,0,1,0,1,1,0,0,0,0,0,0,0,0,0,0,0,0,0,0,0,0,0,0,0,0,0,0,0,0,0,0,0,0,0,0,0,0,0,0,0,0,0,0],"id":0,"left_children":[1,3,5,7,9,11,13,15,17,19,21,23,25,27,29,-1,31,-1,-1,33,35,37,39,-1,41,43,45,-1,47,49,51,53,55,57,59,61,63,65,67,69,-1,71,73,75,77,-1,79,81,-1,83,85,87,89,-1,-1,-1,-1,-1,-1,-1,-1,-1,-1,-1,-1,-1,-1,-1,-1,-1,-1,-1,-1,-1,-1,-1,-1,-1,-1,-1,-1,-1,-1,-1,-1,-1,-1,-1,-1,-1,-1],"loss_changes":[8.4783373E12,4.4337243E12,3.2883543E12,3.2030353E11,2.697202E12,2.4717747E12,7.4626E11,6.322638E10,2.1111754E11,1.5021542E12,2.1729326E11,4.7342053E11,6.4893735E10,3.1529107E10,3.235138E11,0E0,4.1684566E10,0E0,0E0,4.2149583E11,7.128984E11,2.6810057E10,3.3630192E10,0E0,2.5341985E11,1.2814885E10,5.5372513E9,0E0,7.57085E9,4.2293297E10,6.526102E10,4.4844974E9,8.719429E8,4.0770273E11,2.2724946E11,5.1203054E11,7.420012E10,2.660442E9,2.6690191E9,2.4151065E10,0E0,4.7384035E10,2.2971941E11,2.637499E9,9.434276E8,0E0,3.3569587E8,1.4695793E9,0E0,8.259507E7,7.466215E10,8.1657405E10,1.1699495E10,0E0,0E0,0E0,0E0,0E0,0E0,0E0,0E0,0E0,0E0,0E0,0E0,0E0,0E0,0E0,0E0,0E0,0E0,0E0,0E0,0E0,0E0,0E0,0E0,0E0,0E0,0E0,0E0,0E0,0E0,0E0,0E0,0E0,0E0,0E0,0E0,0E0,0E0],"parents":[2147483647,0,0,1,1,2,2,3,3,4,4,5,5,6,6,7,7,8,8,9,9,10,10,11,11,12,12,13,13,14,14,16,16,19,19,20,20,21,21,22,22,24,24,25,25,26,26,28,28,29,29,30,30,31,31,32,32,33,33,34,34,35,35,36,36,37,37,38,38,39,39,41,41,42,42,43,43,44,44,46,46,47,47,49,49,50,50,51,51,52,52],"right_children":[2,4,6,8,10,12,14,16,18,20,22,24,26,28,30,-1,32,-1,-1,34,36,38,40,-1,42,44,46,-1,48,50,52,54,56,58,60,62,64,66,68,70,-1,72,74,76,78,-1,80,82,-1,84,86,88,90,-1,-1,-1,-1,-1,-1,-1,-1,-1,-1,-1,-1,-1,-1,-1,-1,-1,-1,-1,-1,-1,-1,-1,-1,-1,-1,-1,-1,-1,-1,-1,-1,-1,-1,-1,-1,-1,-1],"split_conditions":[1E0,NaN,NaN,5.12E2,NaN,NaN,NaN,2.4E2,NaN,5.12E2,NaN,NaN,5.12E2,NaN,NaN,2.7534932E3,NaN,1.7760727E4,6.219062E3,1.2E1,NaN,NaN,NaN,2.129276E4,8E0,NaN,NaN,1.04716045E4,NaN,3E0,NaN,NaN,NaN,NaN,2.56E2,1.2E1,NaN,1.6E1,1.6E1,NaN,-5.004308E3,5E0,5E2,NaN,NaN,3.9601711E3,3E0,NaN,2.4004102E3,NaN,1.6E1,NaN,1.6E1,9.28713E3,6.8088203E3,1.4003568E3,-2.2464317E2,6.2191254E2,-1.9084316E3,-1.3538402E3,1.1940109E3,2.9151719E3,1.2531144E4,2.1089739E3,2.720115E1,-2.2370212E3,-1.4745172E3,-3.2771914E3,-2.438544E3,-1.5942906E2,-4.1279263E3,1.7005709E3,8.3897705E3,-1.6828577E3,1.4665653E4,2.0253568E3,-3.911909E2,-4.7464316E2,-2.6688767E3,1.7535684E2,1.390371E3,6.335282E3,3.0005352E3,-2.3714317E2,-1.1057147E3,7.642275E3,2.8858315E3,2.080445E3,-2.336826E3,-2.8864104E3,-9.820335E2],"split_indices":[6,1,1,4,2,2,2,4,1,4,2,1,4,2,1,0,8,0,0,3,1,1,2,0,3,2,2,0,8,3,2,1,1,2,4,3,2,3,3,8,0,3,4,2,8,0,3,2,0,1,3,1,3,0,0,0,0,0,0,0,0,0,0,0,0,0,0,0,0,0,0,0,0,0,0,0,0,0,0,0,0,0,0,0,0,0,0,0,0,0,0],"split_type":[0,1,1,0,1,1,1,0,1,0,1,1,0,1,1,0,1,0,0,0,1,1,1,0,0,1,1,0,1,0,1,1,1,1,0,0,1,0,0,1,0,0,0,1,1,0,0,1,0,1,0,1,0,0,0,0,0,0,0,0,0,0,0,0,0,0,0,0,0,0,0,0,0,0,0,0,0,0,0,0,0,0,0,0,0,0,0,0,0,0,0],"sum_hessian":[3.116E3,2.727E3,3.89E2,9E1,2.637E3,1.68E2,2.21E2,6.6E1,2.4E1,1.9E3,7.37E2,1.37E2,3.1E1,8.1E1,1.4E2,7E0,5.9E1,1.7E1,7E0,1.607E3,2.93E2,2.56E2,4.81E2,2.6E1,1.11E2,2.2E1,9E0,6E0,7.5E1,5E1,9E1,5.7E1,2E0,1.211E3,3.96E2,5.6E1,2.37E2,7.8E1,1.78E2,1.85E2,2.96E2,1.7E1,9.4E1,3E0,1.9E1,4E0,5E0,7.2E1,3E0,4E0,4.6E1,4.1E1,4.9E1,3.7E1,2E1,1E0,1E0,1.88E2,1.023E3,1.29E2,2.67E2,2.8E1,2.8E1,1.81E2,5.6E1,5.1E1,2.7E1,1.51E2,2.7E1,4E0,1.81E2,4E0,1.3E1,2E0,9.2E1,1E0,2E0,1E0,1.8E1,1E0,4E0,6.9E1,3E0,1E0,3E0,1.1E1,3.5E1,2.4E1,1.7E1,3.7E1,1.2E1],"tree_param":{"num_deleted":"0","num_feature":"10","num_nodes":"91","size_leaf_vector":"1"}},{"base_weights":[9.572674E1,2.6554253E5,-9.926186E3,2.1293458E5,3.9783022E5,-2.6220715E4,1.053042E5,2.5323334E5,1.4079488E5,2.0456021E4,1.4780977E3,-6.038636E3,-7.7567766E4,1.4735789E5,-3.5773207E4,1.0338171E5,2.635672E5,1.4865277E5,1.5284276E4,-1.8243682E4,2.4451213E4,-5.4586184E4,-8.968304E4,2.4932022E5,8.2214836E4,-4.913987E4,-9.184103E3,1.1681786E3,5.877268E3,1.3726039E4,8.0096636E3,1.9059472E5,1.216017E5,1.3653479E3,-2.1902715E2,2.4078945E4,-2.9634848E4,4.780522E4,2.1892834E3,-3.748652E4,-6.2340082E4,-7.8782484E4,-9.498931E4,2.6469624E3,2.5851692E5,2.699645E4,1.3120548E5,-3.0264977E4,-6.29401E4,3.5014705E3,-1.7343262E4,1.0515581E4,3.724238E3,7.1438164E3,3.458545E3,1.7180114E3,-8.030113E2,-4.120288E3,-1.2418309E3,2.7779878E3,-3.0414624E3,1.9972408E3,-5.263716E2,-5.5492993E2,-2.0272942E3,-4.271694E3,-2.9987056E3,7.793426E2,-3.9728533E3,-1.0493807E3,-4.769437E3,2.6771235E3,-2.4565432E3,1.3275242E4,3.1431067E3,5.301495E3,3.2088924E1,9.184576E3,5.895684E3,1.8051384E2,-2.0304033E3,-5.7684E2,-3.2991216E3,3.449448E2,-1.2134172E3],"categories":[0,2,4,5,8,9,10,12,13,14,15,17,0,1,2,4,5,6,7,8,9,10,11,12,13,14,15,17,0,1,2,3,7,8,9,10,11,12,13,14,15,16,17,18,20,21,0,8,10,12,13,14,15,18,20,21,1,2,8,10,12,14,15,17,18,0,1,2,3,5,7,8,11,12,13,14,15,16,17,18,19,20,22,23,0,8,10,12,14,0,1,2,3,4,5,6,7,8,9,11,12,13,14,15,16,11,1,2,11,22,1,3,4,6,7,8,9,10,11,12,13,14,16,8,9,8,10,12,0,2,8,10,12,14,4,0,1,2,3,5,7,8,10,11,12,13,14,15,16,17,18,19,20,21,22,23,0,1,2,3,4,5,8,9,10,11,12,13,14,15,16,17,8,0,1,6,7,10,15,0,1,2,3,6,8,9,10,11,12,13,14,15,16,17,18,19,20,21,22,4,6,9,10,11,19,20,0,1,3,4,5,6,9,10,13,20,21,22,0,1,3,4,5,6,8,9,10,11,13,15,16,18,20,21,22,23,3,0,1,2,3,5,6,7,8,10,12,13,14,15,16,17,18,19,20,22,23,0,1,2,7,8,9,10,11,12,13,14,15,16,17,18,19,20,21,22,0,1,2,3,4,5,6,7,8,9,10,11,12,13,14,16,17,8,9,17,4,6,14,1,3],"categories_nodes":[0,3,4,5,6,8,12,13,18,19,20,21,22,24,25,26,31,32,35,37,38,39,41,42,43,44,45,46,47,48,50],"categories_segments":[0,12,28,46,56,65,84,89,105,106,110,123,125,128,129,134,135,156,172,173,179,199,206,218,236,237,257,276,293,296,299],"categories_sizes":[12,16,18,10,9,19,5,16,1,4,13,2,3,1,5,1,21,16,1,6,20,7,12,18,1,20,19,17,3,3,2],"default_left":[1,0,0,1,1,1,1,0,1,0,0,1,1,1,1,0,0,0,1,1,1,1,1,0,1,1,1,0,0,0,0,1,1,0,0,1,0,1,1,1,0,1,1,1,1,1,1,1,1,0,1,0,0,0,0,0,0,0,0,0,0,0,0,0,0,0,0,0,0,0,0,0,0,0,0,0,0,0,0,0,0,0,0,0,0],"id":1,"left_children":[1,3,5,7,9,11,13,15,17,-1,-1,19,21,23,25,27,29,31,33,35,37,39,41,43,45,47,49,-1,-1,-1,-1,51,53,-1,-1,55,57,59,61,63,65,67,69,71,73,75,77,79,81,-1,83,-1,-1,-1,-1,-1,-1,-1,-1,-1,-1,-1,-1,-1,-1,-1,-1,-1,-1,-1,-1,-1,-1,-1,-1,-1,-1,-1,-1,-1,-1,-1,-1,-1,-1],"loss_changes":[8.2628203E12,7.016976E11,5.6224923E12,2.0563886E11,1.1679878E11,2.7177202E12,2.2063494E12,5.327631E10,2.9287973E10,0E0,0E0,7.0153896E11,2.0114204E11,1.8791536E12,3.0113743E10,2.9204603E9,1.0374611E10,1.086056E10,8.288909E8,6.496257E11,2.8012426E11,3.1871009E10,2.0453523E10,2.5112766E11,4.7257053E11,1.2942361E10,2.0604004E10,0E0,0E0,0E0,0E0,7.228293E9,1.3541442E10,0E0,0E0,1.1857892E11,2.6660576E11,2.2493338E11,1.3341552E11,6.2506025E9,4.4926894E9,1.1678581E10,7.456686E9,1.5806881E10,1.2960242E11,1.748956E11,4.3220206E10,9.256348E9,4.243112E9,0E0,4.8680356E9,0E0,0E0,0E0,0E0,0E0,0E0,0E0,0E0,0E0,0E0,0E0,0E0,0E0,0E0,0E0,0E0,0E0,0E0,0E0,0E0,0E0,0E0,0E0,0E0,0E0,0E0,0E0,0E0,0E0,0E0,0E0,0E0,0E0,0E0],"parents":[2147483647,0,0,1,1,2,2,3,3,4,4,5,5,6,6,7,7,8,8,11,11,12,12,13,13,14,14,15,15,16,16,17,17,18,18,19,19,20,20,21,21,22,22,23,23,24,24,25,25,26,26,31,31,32,32,35,35,36,36,37,37,38,38,39,39,40,40,41,41,42,42,43,43,44,44,45,45,46,46,47,47,48,48,50,50],"right_children":[2,4,6,8,10,12,14,16,18,-1,-1,20,22,24,26,28,30,32,34,36,38,40,42,44,46,48,50,-1,-1,-1,-1,52,54,-1,-1,56,58,60,62,64,66,68,70,72,74,76,78,80,82,-1,84,-1,-1,-1,-1,-1,-1,-1,-1,-1,-1,-1,-1,-1,-1,-1,-1,-1,-1,-1,-1,-1,-1,-1,-1,-1,-1,-1,-1,-1,-1,-1,-1,-1,-1],"split_conditions":[NaN,1E0,1E0,NaN,NaN,NaN,NaN,1E0,NaN,2.0456021E4,1.4780977E3,1.2E1,NaN,NaN,1.6E1,2.4E1,1.504E3,1E0,NaN,NaN,NaN,NaN,NaN,5E0,NaN,NaN,NaN,1.1681786E3,5.877268E3,1.3726039E4,8.0096636E3,NaN,NaN,1.3653479E3,-2.1902715E2,NaN,5E0,NaN,NaN,NaN,5E0,NaN,NaN,NaN,NaN,NaN,NaN,NaN,NaN,3.5014705E3,NaN,1.0515581E4,3.724238E3,7.1438164E3,3.458545E3,1.7180114E3,-8.030113E2,-4.120288E3,-1.2418309E3,2.7779878E3,-3.0414624E3,1.9972408E3,-5.263716E2,-5.5492993E2,-2.0272942E3,-4.271694E3,-2.9987056E3,7.793426E2,-3.9728533E3,-1.0493807E3,-4.769437E3,2.6771235E3,-2.4565432E3,1.3275242E4,3.1431067E3,5.301495E3,3.2088924E1,9.184576E3,5.895684E3,1.8051384E2,-2.0304033E3,-5.7684E2,-3.2991216E3,3.449448E2,-1.2134172E3],"split_indices":[1,6,6,1,2,2,2,9,8,0,0,3,2,1,3,3,3,9,1,2,1,1,2,3,7,2,8,0,0,0,0,8,1,0,0,1,3,8,2,8,3,8,8,5,8,2,1,1,8,0,5,0,0,0,0,0,0,0,0,0,0,0,0,0,0,0,0,0,0,0,0,0,0,0,0,0,0,0,0,0,0,0,0,0,0],"split_type":[1,0,0,1,1,1,1,0,1,0,0,0,1,1,0,0,0,0,1,1,1,1,1,0,1,1,1,0,0,0,0,1,1,0,0,1,0,1,1,1,0,1,1,1,1,1,1,1,1,0,1,0,0,0,0,0,0,0,0,0,0,0,0,0,0,0,0,0,0,0,0,0,0,0,0,0,0,0,0,0,0,0,0,0,0],"sum_hessian":[3.104E3,1.12E2,2.992E3,8.2E1,3E1,2.622E3,3.7E2,5.1E1,3.1E1,2.9E1,1E0,1.883E3,7.39E2,2.85E2,8.5E1,4E0,4.7E1,2.9E1,2E0,1.345E3,5.38E2,2.57E2,4.82E2,1.1E2,1.75E2,5.6E1,2.9E1,1E0,3E0,4.1E1,6E0,9E0,2E1,1E0,1E0,2.85E2,1.06E3,2.62E2,2.76E2,8.2E1,1.75E2,1.63E2,3.19E2,4E0,1.06E2,8.3E1,9.2E1,2.5E1,3.1E1,2E0,2.7E1,7E0,2E0,1.3E1,7E0,2.27E2,5.8E1,8.7E1,9.73E2,2.45E2,1.7E1,6.9E1,2.07E2,9E0,7.3E1,1.3E1,1.62E2,1E0,1.62E2,2E0,3.17E2,2E0,2E0,1.02E2,4E0,2E1,6.3E1,1.6E1,7.6E1,6E0,1.9E1,2E0,2.9E1,6E0,2.1E1],"tree_param":{"num_deleted":"0","num_feature":"10","num_nodes":"85","size_leaf_vector":"1"}},{"base_weights":[-3.0034555E2,9.455962E4,-2.5888209E4,5.6440742E4,2.157535E5,8.9403625E4,-3.9033426E4,3.0871723E4,1.1556578E5,2.5865688E5,1.0473746E5,4.043304E4,1.8744642E5,-2.4078736E4,-7.9666766E4,4.5816508E4,-3.8029734E4,1.618273E5,2.5226553E4,2.6456038E5,7.7048336E4,1.4016312E5,2.218021E4,8.341735E4,1.7428508E4,3.825822E5,1.4295381E5,-3.7855258E4,7.732061E3,-6.65993E4,-8.978733E4,6.778203E4,1.7753723E4,-2.4837123E4,-3.8027622E3,2.3084264E5,9.990824E4,4.525285E4,-3.3793336E4,3.0712925E5,2.3877714E5,5.313844E3,2.213701E4,2.721528E3,1.471551E5,3.9610926E4,-1.03017E3,6.779713E4,1.2471685E5,1.2109995E4,4.2823863E4,5.1801922E5,1.1736659E4,1.0646008E4,1.0182092E5,-4.1190707E4,1.3336718E4,4.8270777E4,-7.307998E3,-6.1806273E4,-4.2257397E3,-2.72438E3,-4.5299854E3,1.8885566E3,5.019336E3,1.2857944E3,-3.134195E3,1.2201666E2,-3.2255725E3,1.322808E4,4.821929E3,8.521925E2,7.338618E3,1.4499269E3,3.0845955E3,-1.0666315E2,-2.557262E3,1.711036E4,1.1526466E4,6.740893E3,1.3166937E4,1.330138E3,3.301379E2,1.0887415E4,6.3575127E3,-1.3104239E2,2.7887722E3,5.3662827E3,2.1143706E3,8.740993E3,4.530243E3,2.3289153E3,3.248912E2,3.1299153E3,1.3036122E3,2.765051E4,7.7018345E3,5.1720947E3,7.2193713E2,-3.8621868E3,-1.8683336E3,6.0069155E3,-3.2329257E2,1.7113994E3,3.8940935E3,-8.982211E2,3.0238406E3,-3.2635369E3,-1.8846796E3],"categories":[3,5,6,7,9,10,11,12,0,1,2,3,8,10,12,13,14,15,17,18,20,21,22,0,1,2,3,4,7,8,9,10,11,12,13,14,15,16,17,18,19,20,21,0,8,10,12,13,14,15,0,1,2,7,8,10,11,20,21,22,0,1,2,3,4,5,7,8,9,10,11,12,13,14,15,16,17,18,19,20,21,0,1,2,3,5,6,7,8,9,10,11,12,13,14,15,16,17,18,19,20,22,23,0,1,2,3,5,6,7,8,9,10,11,12,13,14,15,16,17,18,19,20,21,22,0,1,2,3,4,8,9,10,11,12,13,14,15,16,17,18,19,20,21,22,0,1,2,3,4,7,8,9,10,11,12,13,14,15,16,17,18,20,21,22,8,10,12,0,1,2,3,4,5,6,7,8,9,10,11,12,13,14,15,16,17,18,19,20,21,12,13,14,18,1,2,13,14,18,21,0,1,2,3,4,6,7,8,9,10,11,12,13,14,15,16,17,18,19,20,21,22,18,0,1,2,3,4,5,6,8,9,10,11,12,0,1,2,3,4,5,6,8,9,10,11,12,0,1,2,3,4,5,6,7,8,9,10,12,0,1,3,4,5,6,8,9,10,11,15,20,21,22,23,12,14,15,18,21,1,2,7,8,20,22,0,2,3,4,5,6,7,8,9,10,11,12,0,1,13,14,18,21,0,1,3,4,5,6,7,8,9,10,11,12,0,1,2,3,4,5,6,8,9,10,11,12,0,1,2,4,5,6,8,9,10,11,12,0,1,2,3,4,5,7,8,10,11,12,13,15,16,17,18,19,20,21,22,23,0,1,3,0,1,2,3,4,5,7,8,9,10,11,12,13,14,15,16,17,18,20,21,22,0,1,2,3,4,6,7,8,9,10,11,12,0],"categories_nodes":[0,2,4,6,7,8,9,10,11,12,14,15,16,18,19,22,25,26,28,29,30,32,33,35,37,38,44,47,48,49,50,51,54,58],"categories_segments":[0,8,23,43,50,60,81,103,125,145,165,168,190,194,200,222,223,235,247,259,260,274,279,285,297,298,303,315,327,338,359,362,383,395],"categories_sizes":[8,15,20,7,10,21,22,22,20,20,3,22,4,6,22,1,12,12,12,1,14,5,6,12,1,5,12,12,11,21,3,21,12,1],"default_left":[1,0,1,1,1,0,1,1,1,1,1,1,1,1,1,1,1,0,1,1,0,0,1,0,1,1,1,0,1,1,1,0,1,1,0,1,0,1,1,1,0,0,0,0,1,1,0,1,1,1,1,1,0,0,1,0,0,0,1,1,0,0,0,0,0,0,0,0,0,0,0,0,0,0,0,0,0,0,0,0,0,0,0,0,0,0,0,0,0,0,0,0,0,0,0,0,0,0,0,0,0,0,0,0,0,0,0,0,0],"id":2,"left_children":[1,3,5,7,9,11,13,15,17,19,21,23,25,27,29,31,33,35,37,39,41,43,45,47,49,51,53,55,57,59,61,63,65,67,-1,69,71,73,75,77,79,-1,81,-1,83,85,-1,87,89,91,93,95,-1,-1,97,99,101,103,105,107,-1,-1,-1,-1,-1,-1,-1,-1,-1,-1,-1,-1,-1,-1,-1,-1,-1,-1,-1,-1,-1,-1,-1,-1,-1,-1,-1,-1,-1,-1,-1,-1,-1,-1,-1,-1,-1,-1,-1,-1,-1,-1,-1,-1,-1,-1,-1,-1,-1],"loss_changes":[7.609493E12,3.0645929E12,3.7453488E12,7.64411E11,7.3021994E11,1.2071278E12,1.3452622E12,3.6832176E11,6.353397E11,1.0183875E11,1.31424846E11,1.6664792E11,6.746048E11,7.111216E11,7.284117E10,1.7940585E11,3.021697E10,4.0854697E11,6.417258E10,4.7396684E10,5.672241E9,1.1172315E10,1.2002353E10,2.9605888E10,1.460874E10,1.7876713E11,1.7977455E11,1.9383635E11,2.9971775E11,1.7445814E10,4.612686E9,1.5668163E11,8.487148E10,5.3185954E10,0E0,1.8748827E11,2.1108356E11,8.899248E9,7.5819674E9,2.321626E10,1.5089559E11,0E0,3.2464768E7,0E0,1.3267239E10,7.6553974E9,0E0,4.0837743E10,9.797173E9,1.7880895E10,4.6617477E9,3.9688602E9,0E0,0E0,5.021991E9,1.4366736E11,1.4882302E11,5.2638614E10,2.6040782E11,1.5249768E10,0E0,0E0,0E0,0E0,0E0,0E0,0E0,0E0,0E0,0E0,0E0,0E0,0E0,0E0,0E0,0E0,0E0,0E0,0E0,0E0,0E0,0E0,0E0,0E0,0E0,0E0,0E0,0E0,0E0,0E0,0E0,0E0,0E0,0E0,0E0,0E0,0E0,0E0,0E0,0E0,0E0,0E0,0E0,0E0,0E0,0E0,0E0,0E0,0E0],"parents":[2147483647,0,0,1,1,2,2,3,3,4,4,5,5,6,6,7,7,8,8,9,9,10,10,11,11,12,12,13,13,14,14,15,15,16,16,17,17,18,18,19,19,20,20,21,21,22,22,23,23,24,24,25,25,26,26,27,27,28,28,29,29,30,30,31,31,32,32,33,33,35,35,36,36,37,37,38,38,39,39,40,40,42,42,44,44,45,45,47,47,48,48,49,49,50,50,51,51,54,54,55,55,56,56,57,57,58,58,59,59],"right_children":[2,4,6,8,10,12,14,16,18,20,22,24,26,28,30,32,34,36,38,40,42,44,46,48,50,52,54,56,58,60,62,64,66,68,-1,70,72,74,76,78,80,-1,82,-1,84,86,-1,88,90,92,94,96,-1,-1,98,100,102,104,106,108,-1,-1,-1,-1,-1,-1,-1,-1,-1,-1,-1,-1,-1,-1,-1,-1,-1,-1,-1,-1,-1,-1,-1,-1,-1,-1,-1,-1,-1,-1,-1,-1,-1,-1,-1,-1,-1,-1,-1,-1,-1,-1,-1,-1,-1,-1,-1,-1,-1],"split_conditions":[NaN,1E0,NaN,1.6E1,NaN,1E0,NaN,NaN,NaN,NaN,NaN,NaN,NaN,1.2E1,NaN,NaN,NaN,5.5E1,NaN,NaN,8E0,5E0,NaN,1.504E3,1.6E1,NaN,NaN,1E0,NaN,NaN,NaN,1E0,NaN,NaN,-3.8027622E3,NaN,2.56E2,NaN,NaN,1.6E1,8E0,5.313844E3,2.4E1,2.721528E3,NaN,8E0,-1.03017E3,NaN,NaN,NaN,NaN,NaN,1.1736659E4,1.0646008E4,NaN,5E0,1E0,2.56E2,NaN,1.6E1,-4.2257397E3,-2.72438E3,-4.5299854E3,1.8885566E3,5.019336E3,1.2857944E3,-3.134195E3,1.2201666E2,-3.2255725E3,1.322808E4,4.821929E3,8.521925E2,7.338618E3,1.4499269E3,3.0845955E3,-1.0666315E2,-2.557262E3,1.711036E4,1.1526466E4,6.740893E3,1.3166937E4,1.330138E3,3.301379E2,1.0887415E4,6.3575127E3,-1.3104239E2,2.7887722E3,5.3662827E3,2.1143706E3,8.740993E3,4.530243E3,2.3289153E3,3.248912E2,3.1299153E3,1.3036122E3,2.765051E4,7.7018345E3,5.1720947E3,7.2193713E2,-3.8621868E3,-1.8683336E3,6.0069155E3,-3.2329257E2,1.7113994E3,3.8940935E3,-8.982211E2,3.0238406E3,-3.2635369E3,-1.8846796E3],"split_indices":[0,6,2,3,2,6,2,8,2,8,2,2,2,3,2,2,2,3,2,2,3,3,2,3,3,0,0,6,0,5,8,9,2,8,0,0,3,7,2,3,3,0,3,0,0,3,0,0,0,8,5,2,0,0,0,3,9,3,7,3,0,0,0,0,0,0,0,0,0,0,0,0,0,0,0,0,0,0,0,0,0,0,0,0,0,0,0,0,0,0,0,0,0,0,0,0,0,0,0,0,0,0,0,0,0,0,0,0,0],"split_type":[1,0,1,0,1,0,1,1,1,1,1,1,1,0,1,1,1,0,1,1,0,0,1,0,0,1,1,0,1,1,1,0,1,1,0,1,0,1,1,0,0,0,0,0,1,0,0,1,1,1,1,1,0,0,1,0,0,0,1,0,0,0,0,0,0,0,0,0,0,0,0,0,0,0,0,0,0,0,0,0,0,0,0,0,0,0,0,0,0,0,0,0,0,0,0,0,0,0,0,0,0,0,0,0,0,0,0,0,0],"sum_hessian":[3.133E3,6.65E2,2.468E3,5.07E2,1.58E2,2.52E2,2.216E3,3.55E2,1.52E2,1.13E2,4.5E1,1.69E2,8.3E1,1.621E3,5.95E2,2.92E2,6.3E1,1E2,5.2E1,1.09E2,4E0,3.1E1,1.4E1,5.8E1,1.11E2,1.4E1,6.9E1,1.131E3,4.9E2,2.63E2,3.32E2,1.63E2,1.29E2,4.8E1,1.5E1,4.6E1,5.4E1,3.9E1,1.3E1,3.7E1,7.2E1,2E0,2E0,3E0,2.8E1,1E1,4E0,4.4E1,1.4E1,9.3E1,1.8E1,6E0,8E0,2.4E1,4.5E1,1.062E3,6.9E1,1.32E2,3.58E2,2.11E2,5.2E1,9E0,3.23E2,8.6E1,7.7E1,1.18E2,1.1E1,2.9E1,1.9E1,3.6E1,1E1,2E1,3.4E1,2.1E1,1.8E1,5E0,8E0,2.3E1,1.4E1,1.5E1,5.7E1,1E0,1E0,4E0,2.4E1,3E0,7E0,1.6E1,2.8E1,4E0,1E1,1.2E1,8.1E1,7E0,1.1E1,5E0,1E0,4.4E1,1E0,1E2,9.62E2,1E1,5.9E1,9.1E1,4.1E1,3.1E2,4.8E1,1.83E2,2.8E1],"tree_param":{"num_deleted":"0","num_feature":"10","num_nodes":"109","size_leaf_vector":"1"}},{"base_weights":[1.2725177E3,8.625515E4,-2.228617E4,5.6220062E4,1.9021769E5,8.774061E4,-3.5427016E4,2.7586672E4,1.4570758E5,2.3404953E5,1.0142472E5,3.8866594E4,1.8560367E5,-2.1236053E4,-7.437341E4,4.214616E4,-4.454591E4,3.413269E5,5.2911004E4,7.5192437E3,2.503818E5,1.4029714E5,3.2213996E4,7.872775E4,1.5946413E4,3.7214988E5,1.4157112E5,-2.6235547E4,3.395417E4,-6.1846367E4,-8.528659E4,6.2915695E4,7.195778E3,-3.1063098E4,-3.7675754E3,4.4341355E4,3.5541997E5,5.926096E4,-2.9032928E4,2.5833844E5,7.459074E4,7.431078E3,4.407308E3,5.5471887E4,-9.4518915E2,1.2580193E5,5.4471254E4,5.5619348E4,1.3594709E4,2.4061156E4,1.1692293E4,2.0025875E5,9.9673125E4,6.6557603E3,-3.3880023E4,1.0639389E4,1.4037028E5,-5.6571293E4,-3.9755728E3,-8.583598E4,-4.5466666E2,2.4454365E3,5.6593853E3,7.164088E2,-3.0878013E3,-1.8334584E3,2.058624E3,3.6485254E3,-3.2292383E2,1.8162486E4,1.4472308E3,8.502518E3,2.71828E3,-2.828336E2,-1.8626049E3,1.5987377E4,1.1605116E4,4.500979E3,3.2188437E2,3.0779832E3,-5.917287E2,8.1603057E3,4.5114834E3,3.5445762E3,7.1106433E2,5.4538687E3,8.1049805E1,1.3316912E3,2.4467747E2,3.4566301E3,1.0370566E4,5.049392E3,1.0785067E3,-1.4528489E3,3.0893833E3,-1.9163551E3,6.3672943E2,1.7272659E3,-1.3984357E3,9.978125E3,5.212902E3,6.1779987E2,-2.8636606E3,-3.2203032E3,-4.362962E3,1.6329501E3,-1.66705E3],"categories":[3,5,6,7,9,10,11,12,0,1,2,3,8,9,10,11,12,13,14,15,16,17,18,20,21,22,0,1,2,3,4,7,8,9,10,11,12,13,14,15,16,17,18,19,20,21,0,8,10,12,13,14,15,21,0,1,2,7,8,10,11,20,21,22,0,2,3,4,5,6,7,8,9,10,11,12,0,1,2,3,5,6,7,8,9,10,11,12,13,14,15,16,17,18,19,20,21,22,0,1,2,3,4,8,9,10,11,12,13,14,15,16,17,18,19,20,21,22,0,1,2,3,4,7,8,9,10,11,12,13,14,15,16,17,18,20,21,22,0,8,10,12,0,1,2,3,4,5,6,7,8,9,10,11,12,13,14,15,16,17,18,19,20,21,13,14,18,1,2,18,0,1,2,3,5,6,7,8,9,10,11,12,13,14,15,16,17,18,19,20,22,23,1,3,4,5,6,7,8,9,10,11,12,12,18,0,1,2,3,4,5,6,8,9,11,12,0,1,2,3,4,5,6,7,8,9,11,12,0,1,2,3,4,5,6,8,9,10,11,12,0,1,2,3,4,5,6,8,9,10,11,12,3,5,6,7,10,12,0,12,14,15,18,21,4,0,1,2,0,1,2,3,4,5,7,8,9,10,11,12,13,14,15,16,17,18,19,20,21,22,2,0,1,2,3,4,6,7,8,9,10,11,12,13,14,15,16,17,18,19,20,21,22,0,1,2,3,4,5,7,8,9,10,12,13,14,15,16,17,18,19,20,21,22,23,0,0,1,2,3,4,7,8,9,10,11,12,13,14,15,16,17,18,19,20,21,22,0,1,0,1,2,3,4,7,8,9,10,11,12,13,14,15,16,17,18,19,20,21,22,23,0,1,2,3,5,6,7,8,10,11,12,13,14,15,16,17,18,19,20,21,22,23,10,11,0,1,2,4,6,7,8,9,10,11,12,0,1,3,4,5,6,8,9,10,11,13,19,20,21,4,5,6,8,10,15,20,21,12],"categories_nodes":[0,2,4,6,7,8,10,11,12,13,14,15,16,18,20,21,22,23,24,25,26,27,29,32,35,36,37,38,39,40,43,45,46,47,52,55,56,57,59,60],"categories_segments":[0,8,26,46,54,64,76,98,118,138,139,142,164,167,170,192,203,205,216,228,240,252,258,259,264,265,268,290,291,313,335,336,357,359,381,403,405,416,430,438],"categories_sizes":[8,18,20,8,10,12,22,20,20,1,3,22,3,3,22,11,2,11,12,12,12,6,1,5,1,3,22,1,22,22,1,21,2,22,22,2,11,14,8,1],"default_left":[1,0,1,1,1,0,1,1,1,0,1,1,1,1,1,1,1,0,1,0,1,1,1,1,1,1,1,1,0,1,1,1,1,0,0,1,1,1,1,1,1,0,0,1,0,1,1,1,0,0,0,0,1,1,1,1,1,1,0,1,1,0,0,0,0,0,0,0,0,0,0,0,0,0,0,0,0,0,0,0,0,0,0,0,0,0,0,0,0,0,0,0,0,0,0,0,0,0,0,0,0,0,0,0,0,0,0],"id":3,"left_children":[1,3,5,7,9,11,13,15,17,19,21,23,25,27,29,31,33,35,37,-1,39,41,43,45,47,49,51,53,55,57,59,61,63,65,-1,67,69,71,73,75,77,-1,-1,79,-1,81,83,85,87,-1,-1,89,91,93,95,97,99,101,-1,103,105,-1,-1,-1,-1,-1,-1,-1,-1,-1,-1,-1,-1,-1,-1,-1,-1,-1,-1,-1,-1,-1,-1,-1,-1,-1,-1,-1,-1,-1,-1,-1,-1,-1,-1,-1,-1,-1,-1,-1,-1,-1,-1,-1,-1,-1,-1],"loss_changes":[6.272435E12,2.1126222E12,3.5497653E12,1.3514535E12,5.6783956E11,1.2459218E12,1.2099099E12,4.240633E11,2.305499E12,1.0035606E11,1.353807E11,1.5954253E11,6.6194165E11,4.445752E11,7.4700554E10,2.4272483E11,2.5902875E10,1.5584251E11,4.751047E10,0E0,9.682236E10,1.2257198E9,2.4826464E10,6.6226127E10,9.786659E9,1.2883224E11,1.5707983E11,3.710949E11,3.309697E11,2.1220819E10,1.4408483E10,1.4233738E11,6.2850605E10,2.135269E10,0E0,4.834347E9,8.917877E10,3.522819E10,1.1342111E9,5.3065286E10,4.678097E9,0E0,0E0,6.464983E9,0E0,1.3215531E10,2.80721E10,1.7143052E10,1.2122849E10,0E0,0E0,1.2859998E10,2.3397335E9,5.511216E11,2.4862471E11,1.0341503E11,3.0495572E10,1.1158094E10,0E0,3.7740872E9,4.355845E9,0E0,0E0,0E0,0E0,0E0,0E0,0E0,0E0,0E0,0E0,0E0,0E0,0E0,0E0,0E0,0E0,0E0,0E0,0E0,0E0,0E0,0E0,0E0,0E0,0E0,0E0,0E0,0E0,0E0,0E0,0E0,0E0,0E0,0E0,0E0,0E0,0E0,0E0,0E0,0E0,0E0,0E0,0E0,0E0,0E0,0E0],"parents":[2147483647,0,0,1,1,2,2,3,3,4,4,5,5,6,6,7,7,8,8,9,9,10,10,11,11,12,12,13,13,14,14,15,15,16,16,17,17,18,18,20,20,21,21,22,22,23,23,24,24,25,25,26,26,27,27,28,28,29,29,30,30,31,31,32,32,33,33,35,35,36,36,37,37,38,38,39,39,40,40,43,43,45,45,46,46,47,47,48,48,51,51,52,52,53,53,54,54,55,55,56,56,57,57,59,59,60,60],"right_children":[2,4,6,8,10,12,14,16,18,20,22,24,26,28,30,32,34,36,38,-1,40,42,44,46,48,50,52,54,56,58,60,62,64,66,-1,68,70,72,74,76,78,-1,-1,80,-1,82,84,86,88,-1,-1,90,92,94,96,98,100,102,-1,104,106,-1,-1,-1,-1,-1,-1,-1,-1,-1,-1,-1,-1,-1,-1,-1,-1,-1,-1,-1,-1,-1,-1,-1,-1,-1,-1,-1,-1,-1,-1,-1,-1,-1,-1,-1,-1,-1,-1,-1,-1,-1,-1,-1,-1,-1,-1],"split_conditions":[NaN,1E0,NaN,5.12E2,NaN,1E0,NaN,NaN,NaN,1.024E3,NaN,NaN,NaN,NaN,NaN,NaN,NaN,1E0,NaN,7.5192437E3,NaN,NaN,NaN,NaN,NaN,NaN,NaN,NaN,1E0,NaN,5.12E2,2.56E2,NaN,1E0,-3.7675754E3,NaN,NaN,NaN,NaN,NaN,NaN,7.431078E3,4.407308E3,NaN,-9.4518915E2,NaN,NaN,NaN,1.024E3,2.4061156E4,1.1692293E4,1.024E3,NaN,2.56E2,5.12E2,NaN,NaN,NaN,-3.9755728E3,NaN,NaN,2.4454365E3,5.6593853E3,7.164088E2,-3.0878013E3,-1.8334584E3,2.058624E3,3.6485254E3,-3.2292383E2,1.8162486E4,1.4472308E3,8.502518E3,2.71828E3,-2.828336E2,-1.8626049E3,1.5987377E4,1.1605116E4,4.500979E3,3.2188437E2,3.0779832E3,-5.917287E2,8.1603057E3,4.5114834E3,3.5445762E3,7.1106433E2,5.4538687E3,8.1049805E1,1.3316912E3,2.4467747E2,3.4566301E3,1.0370566E4,5.049392E3,1.0785067E3,-1.4528489E3,3.0893833E3,-1.9163551E3,6.3672943E2,1.7272659E3,-1.3984357E3,9.978125E3,5.212902E3,6.1779987E2,-2.8636606E3,-3.2203032E3,-4.362962E3,1.6329501E3,-1.66705E3],"split_indices":[0,6,2,4,2,6,2,8,0,4,2,2,2,7,2,2,2,9,2,0,8,0,2,0,0,0,0,0,6,5,4,4,2,9,0,8,5,2,0,2,8,0,0,5,0,2,5,8,4,0,0,4,8,4,4,0,0,8,0,8,2,0,0,0,0,0,0,0,0,0,0,0,0,0,0,0,0,0,0,0,0,0,0,0,0,0,0,0,0,0,0,0,0,0,0,0,0,0,0,0,0,0,0,0,0,0,0],"split_type":[1,0,1,0,1,0,1,1,1,0,1,1,1,1,1,1,1,0,1,0,1,1,1,1,1,1,1,1,0,1,0,0,1,0,0,1,1,1,1,1,1,0,0,1,0,1,1,1,0,0,0,0,1,0,0,1,1,1,0,1,1,0,0,0,0,0,0,0,0,0,0,0,0,0,0,0,0,0,0,0,0,0,0,0,0,0,0,0,0,0,0,0,0,0,0,0,0,0,0,0,0,0,0,0,0,0,0],"sum_hessian":[3.131E3,6.79E2,2.452E3,5.28E2,1.51E2,2.61E2,2.191E3,4.01E2,1.27E2,1E2,5.1E1,1.75E2,8.6E1,1.607E3,5.84E2,3.34E2,6.7E1,4E1,8.7E1,1.8E1,8.2E1,3.2E1,1.9E1,6.3E1,1.12E2,1.5E1,7.1E1,1.474E3,1.33E2,2.75E2,3.09E2,2.09E2,1.25E2,4.8E1,1.9E1,2E0,3.8E1,8.1E1,6E0,7.8E1,4E0,2.6E1,6E0,1.3E1,6E0,2E1,4.3E1,5E0,1.07E2,7E0,8E0,2.8E1,4.3E1,2.78E2,1.196E3,1.1E2,2.3E1,2.15E2,6E1,3.07E2,2E0,1.65E2,4.4E1,1.14E2,1.1E1,4.5E1,3E0,1E0,1E0,3.7E1,1E0,2E0,7.9E1,2E0,4E0,2E1,5.8E1,3E0,1E0,1.2E1,1E0,8E0,1.2E1,3E1,1.3E1,2E0,3E0,4.2E1,6.5E1,2E0,2.6E1,4.2E1,1E0,1.69E2,1.09E2,1.092E3,1.04E2,6.8E1,4.2E1,7E0,1.6E1,2E0,2.13E2,2.2E1,2.85E2,1E0,1E0],"tree_param":{"num_deleted":"0","num_feature":"10","num_nodes":"107","size_leaf_vector":"1"}},{"base_weights":[5.31761E2,2.4633166E5,-7.381814E3,1.7686283E5,3.2422022E5,-2.0986553E4,9.315618E4,2.6582244E5,1.2499907E5,3.4363616E5,1.6972855E5,-3.024028E3,-6.742573E4,1.304968E5,-3.2421537E4,2.8406616E5,7.383398E4,6.4382817E3,-1.7076543E2,3.477803E5,4.6539443E3,1.1013566E4,3.8376821E3,-1.3860456E4,5.493413E4,-4.7619812E4,-7.668911E4,2.2610678E5,6.914805E4,-4.434835E4,2.5398375E4,1.4949976E4,5.7355327E3,6.117859E3,-5.803102E2,2.2594932E4,3.0969234E5,1.4910403E4,-3.1565023E4,2.8891366E5,3.4826176E4,-3.3710004E4,-5.323091E4,-6.779226E4,-8.1490125E4,1.0090684E5,2.4656153E5,2.1542309E4,1.122828E5,-5.214159E4,-1.8937799E4,4.5046074E4,-1.1580852E4,1.582925E4,2.5728223E3,4.452744E3,3.7805972E2,7.975872E2,-1.993569E3,1.6066161E4,2.3267556E3,2.2091145E3,4.5722336E1,-9.02943E2,-1.8755951E3,-2.7543127E3,-2.0418225E3,2.7655676E2,-3.43142E3,-4.0996343E3,-1.0330608E3,-5.336249E2,6.8029956E3,2.744149E4,1.1694358E4,4.7557866E3,-1.4759333E1,7.296828E3,5.1223247E3,-6.562435E2,-2.7966199E3,5.581042E2,-1.1698958E3,3.5441658E3,8.00368E2,1.9665678E2,-1.01605646E3],"categories":[0,1,2,4,5,8,9,10,12,13,14,15,17,1,4,6,8,9,10,11,12,0,1,2,3,4,6,7,8,9,10,11,12,13,14,15,16,17,18,20,21,0,8,10,12,13,14,15,18,20,21,0,1,2,7,8,9,10,11,12,13,14,15,16,17,18,19,20,0,1,2,3,5,7,8,9,10,11,12,13,14,16,17,18,19,20,21,22,23,11,0,4,6,8,9,11,12,0,1,2,3,4,5,6,7,8,9,10,11,12,13,14,15,16,17,18,19,20,22,23,0,8,10,12,13,14,0,1,2,3,4,5,6,7,8,9,11,12,13,14,15,16,7,0,1,2,3,4,6,7,8,9,10,11,12,13,14,15,16,17,18,20,21,22,3,5,6,7,10,12,0,2,3,4,5,6,7,8,9,10,12,8,9,0,8,10,12,0,9,0,4,5,6,7,8,9,11,12,0,3,4,5,6,7,8,9,11,12,13,14,15,16,17,1,2,22,0,1,2,3,4,5,6,7,8,9,10,11,12,13,14,15,16,0,1,2,8,9,10,11,12,13,14,15,16,17,18,19,20,21,0,1,2,3,5,10,0,1,2,3,5,7,10,11,0,1,2,3,4,5,7,8,9,10,11,12,13,14,15,16,17,18,19,20,21,22,23,22,0,1,2,3,4,5,6,7,8,9,10,11,12,13,14,16,17,4,6,14,21,0,3,7,10,0,1,3,4,5,6,7,8,9,10,11,12,13,14,15,16,17,18,19,20,21,22,0],"categories_nodes":[0,3,4,5,6,7,8,9,10,12,13,16,19,23,24,25,26,28,30,36,37,38,39,40,41,43,46,47,48,49,50,51,52],"categories_segments":[0,13,21,41,51,68,89,90,97,120,126,142,143,164,170,181,183,187,188,189,198,213,216,233,250,256,264,287,288,305,309,313,335],"categories_sizes":[13,8,20,10,17,21,1,7,23,6,16,1,21,6,11,2,4,1,1,9,15,3,17,17,6,8,23,1,17,4,4,22,1],"default_left":[1,1,0,1,1,1,1,1,1,1,1,1,1,1,1,1,1,0,0,1,0,0,0,1,1,1,1,0,1,1,1,0,0,0,0,0,1,1,1,1,1,1,1,1,1,0,1,1,1,1,1,1,1,0,0,0,0,0,0,0,0,0,0,0,0,0,0,0,0,0,0,0,0,0,0,0,0,0,0,0,0,0,0,0,0,0,0],"id":4,"left_children":[1,3,5,7,9,11,13,15,17,19,21,23,25,27,29,31,33,-1,-1,35,-1,-1,-1,37,39,41,43,45,47,49,51,-1,-1,-1,-1,-1,53,55,57,59,61,63,65,67,69,71,73,75,77,79,81,83,85,-1,-1,-1,-1,-1,-1,-1,-1,-1,-1,-1,-1,-1,-1,-1,-1,-1,-1,-1,-1,-1,-1,-1,-1,-1,-1,-1,-1,-1,-1,-1,-1,-1,-1],"loss_changes":[6.111553E12,4.7291826E11,4.1655174E12,2.1591648E11,7.66572E10,2.2370257E12,1.706392E12,4.5575307E10,1.7852334E10,8.124367E9,1.5987851E10,1.2160563E12,1.3358334E11,1.6267199E12,5.905339E10,8.695448E9,1.3857593E10,0E0,0E0,1.0745807E10,0E0,0E0,0E0,8.312623E11,1.4249173E12,1.7015439E10,1.6174285E10,2.5426185E11,3.5077652E11,1.2874695E10,1.1420022E10,0E0,0E0,0E0,0E0,0E0,3.888749E10,3.3825653E11,3.992742E11,1.7357616E11,8.943308E10,3.606872E9,1.6597975E9,1.1660427E10,8.241414E9,6.8132143E10,2.2792372E11,1.33380784E11,1.4841938E10,7.104856E9,2.677651E9,6.3681475E9,8.935051E8,0E0,0E0,0E0,0E0,0E0,0E0,0E0,0E0,0E0,0E0,0E0,0E0,0E0,0E0,0E0,0E0,0E0,0E0,0E0,0E0,0E0,0E0,0E0,0E0,0E0,0E0,0E0,0E0,0E0,0E0,0E0,0E0,0E0,0E0],"parents":[2147483647,0,0,1,1,2,2,3,3,4,4,5,5,6,6,7,7,8,8,9,9,10,10,11,11,12,12,13,13,14,14,15,15,16,16,19,19,23,23,24,24,25,25,26,26,27,27,28,28,29,29,30,30,36,36,37,37,38,38,39,39,40,40,41,41,42,42,43,43,44,44,45,45,46,46,47,47,48,48,49,49,50,50,51,51,52,52],"right_children":[2,4,6,8,10,12,14,16,18,20,22,24,26,28,30,32,34,-1,-1,36,-1,-1,-1,38,40,42,44,46,48,50,52,-1,-1,-1,-1,-1,54,56,58,60,62,64,66,68,70,72,74,76,78,80,82,84,86,-1,-1,-1,-1,-1,-1,-1,-1,-1,-1,-1,-1,-1,-1,-1,-1,-1,-1,-1,-1,-1,-1,-1,-1,-1,-1,-1,-1,-1,-1,-1,-1,-1,-1],"split_conditions":[NaN,5.12E2,1E0,NaN,NaN,NaN,NaN,NaN,NaN,NaN,NaN,5.12E2,NaN,NaN,5.12E2,1.6E1,NaN,6.4382817E3,-1.7076543E2,NaN,4.6539443E3,1.1013566E4,3.8376821E3,NaN,NaN,NaN,NaN,8E0,NaN,1.6E1,NaN,1.4949976E4,5.7355327E3,6.117859E3,-5.803102E2,2.2594932E4,NaN,NaN,NaN,NaN,NaN,NaN,1.6E1,NaN,5.12E2,5E0,NaN,NaN,NaN,NaN,NaN,NaN,NaN,1.582925E4,2.5728223E3,4.452744E3,3.7805972E2,7.975872E2,-1.993569E3,1.6066161E4,2.3267556E3,2.2091145E3,4.5722336E1,-9.02943E2,-1.8755951E3,-2.7543127E3,-2.0418225E3,2.7655676E2,-3.43142E3,-4.0996343E3,-1.0330608E3,-5.336249E2,6.8029956E3,2.744149E4,1.1694358E4,4.7557866E3,-1.4759333E1,7.296828E3,5.1223247E3,-6.562435E2,-2.7966199E3,5.581042E2,-1.1698958E3,3.5441658E3,8.00368E2,1.9665678E2,-1.01605646E3],"split_indices":[1,4,6,0,2,2,2,8,8,0,8,4,2,1,4,3,0,0,0,2,0,0,0,0,0,1,2,3,7,3,1,0,0,0,0,0,0,1,2,1,2,0,3,0,4,3,8,2,1,8,0,2,0,0,0,0,0,0,0,0,0,0,0,0,0,0,0,0,0,0,0,0,0,0,0,0,0,0,0,0,0,0,0,0,0,0,0],"split_type":[1,0,0,1,1,1,1,1,1,1,1,0,1,1,0,0,1,0,0,1,0,0,0,1,1,1,1,0,1,0,1,0,0,0,0,0,1,1,1,1,1,1,0,1,0,0,1,1,1,1,1,1,1,0,0,0,0,0,0,0,0,0,0,0,0,0,0,0,0,0,0,0,0,0,0,0,0,0,0,0,0,0,0,0,0,0,0],"sum_hessian":[3.14E3,9.7E1,3.043E3,5.3E1,4.4E1,2.681E3,3.62E2,1.8E1,3.5E1,3.8E1,6E0,1.934E3,7.47E2,2.79E2,8.3E1,1.6E1,2E0,3.4E1,1E0,3.7E1,1E0,3E0,3E0,1.63E3,3.04E2,2.4E2,5.07E2,1.08E2,1.71E2,6.9E1,1.4E1,1.4E1,2E0,1E0,1E0,7E0,3E1,6.21E2,1.009E3,2.3E1,2.81E2,7.1E1,1.69E2,1.83E2,3.24E2,1.6E1,9.2E1,8.2E1,8.9E1,5.2E1,1.7E1,9E0,5E0,2.9E1,1E0,5.5E1,5.66E2,1.5E2,8.59E2,2E1,3E0,2.2E2,6.1E1,1.5E1,5.6E1,1.44E2,2.5E1,2E0,1.81E2,3.21E2,3E0,4E0,1.2E1,2E0,9E1,1.8E1,6.4E1,1.7E1,7.2E1,5E0,4.7E1,2E0,1.5E1,4E0,5E0,2E0,3E0],"tree_param":{"num_deleted":"0","num_feature":"10","num_nodes":"87","size_leaf_vector":"1"}},{"base_weights":[1.9743313E3,2.4427638E5,-5.9863057E3,1.7730597E5,3.2218897E5,2.4238338E4,-4.8167684E4,1.3127883E4,1.2643192E5,3.4509056E5,1.7313283E5,6.4684966E3,9.3532664E4,-4.213586E3,-5.565138E4,6.4690947E3,5.0583047E2,1.802006E4,2.0336677E5,9.507093E3,1.3517402E3,-4.9471577E3,7.5327805E4,1.9272775E5,6.379436E4,2.0395912E4,-1.9239973E4,-4.5231637E4,-7.3060305E4,1.2135278E4,4.156306E3,7.8253164E4,-1.440761E4,2.8501072E5,4.6632758E4,2.1869588E5,1.2738626E5,1.6025855E5,5.3708625E4,6.1162363E3,5.1922633E4,-3.3949832E4,-3.4183662E3,3.9073677E3,-4.7976082E4,-6.747796E4,-8.101728E4,6.8069624E3,-3.6363885E2,-2.993091E2,-2.981581E3,1.5859755E4,2.2395027E3,5.6825474E3,1.5863268E3,1.24572295E4,8.858711E3,1.7027709E3,7.1403765E3,1.9237572E4,6.2759746E3,9.2666406E2,3.2699048E3,5.4740466E2,-1.557103E3,4.590712E3,5.5142236E2,-1.3813007E3,-2.7343894E3,5.7700525E2,-8.63283E2,2.5081345E3,-6.37597E2,-2.2822903E3,-4.428927E3,-1.521046E3,-3.4302615E3,-4.096636E3,-2.5939636E2],"categories":[0,1,2,4,5,8,9,10,12,13,14,15,17,3,6,10,12,1,4,6,8,9,10,11,12,0,4,5,6,8,9,10,11,12,0,0,1,8,10,12,13,14,15,18,20,21,22,0,1,2,0,1,2,3,4,6,7,8,9,10,11,12,13,14,15,16,17,18,20,21,0,1,2,4,5,7,8,9,10,11,12,13,14,15,16,17,0,1,2,3,4,5,6,7,8,9,11,12,13,14,16,17,2,17,0,8,10,12,13,14,0,1,2,3,4,5,6,8,9,10,11,12,13,14,15,16,17,0,3,4,6,7,8,9,11,12,13,14,15,16,17,0,2,3,5,6,7,8,9,10,12,0,1,3,4,5,6,9,10,11,12,0,1,2,3,4,5,7,8,9,10,11,12,13,14,15,16,17,18,19,20,21,22,4,8,9,10,13,17,8,10,0,1,2,3,6,7,8,9,10,11,12,13,14,15,16,17,18,19,20,21,8,10,12,13,14,15,18,21,0,1,2,3,4,5,6,7,8,9,10,11,12,13,14,15,16,0,1,2,3,4,8,9,10,11,12,13,14,15,16,17,18,19,20,21,22,0,1,2,3,4,6,7,8,9,10,11,12,13,14,15,16,17,18,19,20,21,0,1,2,3,5,6,8,9,10,11,12,2,0,1,2,3,4,6,7,8,10,11,12,13,14,15,16,17,8,17,8,9,17,0,0,2,3],"categories_nodes":[0,2,3,4,5,6,8,9,10,12,13,14,18,21,22,23,24,27,28,31,32,33,34,35,37,39,40,41,42,44,45],"categories_segments":[0,13,17,25,34,35,47,50,70,86,102,104,110,127,141,151,161,183,189,191,211,219,236,256,277,288,289,305,307,310,311],"categories_sizes":[13,4,8,9,1,12,3,20,16,16,2,6,17,14,10,10,22,6,2,20,8,17,20,21,11,1,16,2,3,1,3],"default_left":[1,1,1,1,1,1,1,0,1,1,1,1,1,1,1,0,0,0,1,0,0,1,1,1,1,0,1,1,1,0,0,1,1,1,1,1,0,1,0,1,1,1,1,0,1,1,1,0,0,0,0,0,0,0,0,0,0,0,0,0,0,0,0,0,0,0,0,0,0,0,0,0,0,0,0,0,0,0,0],"id":5,"left_children":[1,3,5,7,9,11,13,-1,15,17,19,21,23,25,27,-1,-1,-1,29,-1,-1,31,33,35,37,39,41,43,45,-1,-1,47,49,51,53,55,57,59,61,63,65,67,69,71,73,75,77,-1,-1,-1,-1,-1,-1,-1,-1,-1,-1,-1,-1,-1,-1,-1,-1,-1,-1,-1,-1,-1,-1,-1,-1,-1,-1,-1,-1,-1,-1,-1,-1],"loss_changes":[6.0639276E12,4.646581E11,3.882015E12,2.0968178E11,9.386643E10,2.183808E12,4.178473E11,0E0,1.1386749E10,9.162457E9,1.473944E10,1.1110952E12,1.0555666E12,6.917369E10,1.9369191E11,0E0,0E0,0E0,8.2055496E9,0E0,0E0,9.558951E11,1.196098E12,1.1297515E11,2.6380822E11,3.1646015E10,2.6881049E10,9.216144E10,1.2522619E10,0E0,0E0,6.148846E11,4.147704E11,1.7134531E11,1.7421409E11,2.9186327E10,3.2557957E10,1.544717E11,1.0363909E11,9.342284E9,3.487679E10,6.3577866E9,1.2005904E10,2.9151191E10,5.7077924E10,8.1056236E9,1.0820518E10,0E0,0E0,0E0,0E0,0E0,0E0,0E0,0E0,0E0,0E0,0E0,0E0,0E0,0E0,0E0,0E0,0E0,0E0,0E0,0E0,0E0,0E0,0E0,0E0,0E0,0E0,0E0,0E0,0E0,0E0,0E0,0E0],"parents":[2147483647,0,0,1,1,2,2,3,3,4,4,5,5,6,6,8,8,9,9,10,10,11,11,12,12,13,13,14,14,18,18,21,21,22,22,23,23,24,24,25,25,26,26,27,27,28,28,31,31,32,32,33,33,34,34,35,35,36,36,37,37,38,38,39,39,40,40,41,41,42,42,43,43,44,44,45,45,46,46],"right_children":[2,4,6,8,10,12,14,-1,16,18,20,22,24,26,28,-1,-1,-1,30,-1,-1,32,34,36,38,40,42,44,46,-1,-1,48,50,52,54,56,58,60,62,64,66,68,70,72,74,76,78,-1,-1,-1,-1,-1,-1,-1,-1,-1,-1,-1,-1,-1,-1,-1,-1,-1,-1,-1,-1,-1,-1,-1,-1,-1,-1,-1,-1,-1,-1,-1,-1],"split_conditions":[NaN,5.12E2,NaN,NaN,NaN,NaN,NaN,1.3127883E4,NaN,NaN,NaN,5.12E2,NaN,NaN,NaN,6.4690947E3,5.0583047E2,1.802006E4,NaN,9.507093E3,1.3517402E3,NaN,NaN,NaN,NaN,1.504E3,1.6E1,NaN,NaN,1.2135278E4,4.156306E3,NaN,NaN,NaN,NaN,NaN,1.024E3,NaN,5E2,NaN,NaN,NaN,NaN,1E0,NaN,NaN,5.12E2,6.8069624E3,-3.6363885E2,-2.993091E2,-2.981581E3,1.5859755E4,2.2395027E3,5.6825474E3,1.5863268E3,1.24572295E4,8.858711E3,1.7027709E3,7.1403765E3,1.9237572E4,6.2759746E3,9.2666406E2,3.2699048E3,5.4740466E2,-1.557103E3,4.590712E3,5.5142236E2,-1.3813007E3,-2.7343894E3,5.7700525E2,-8.63283E2,2.5081345E3,-6.37597E2,-2.2822903E3,-4.428927E3,-1.521046E3,-3.4302615E3,-4.096636E3,-2.5939636E2],"split_indices":[1,4,0,0,0,7,2,0,5,2,1,4,1,2,2,0,0,0,1,0,0,1,0,0,2,3,3,1,2,0,0,2,2,1,2,2,4,0,4,5,1,1,1,9,5,5,4,0,0,0,0,0,0,0,0,0,0,0,0,0,0,0,0,0,0,0,0,0,0,0,0,0,0,0,0,0,0,0,0],"split_type":[1,0,1,1,1,1,1,0,1,1,1,0,1,1,1,0,0,0,1,0,0,1,1,1,1,0,0,1,1,0,0,1,1,1,1,1,0,1,0,1,1,1,1,0,1,1,0,0,0,0,0,0,0,0,0,0,0,0,0,0,0,0,0,0,0,0,0,0,0,0,0,0,0,0,0,0,0,0,0],"sum_hessian":[3.142E3,9.9E1,3.043E3,5.5E1,4.4E1,1.773E3,1.27E3,1.9E1,3.6E1,3.7E1,7E0,1.412E3,3.61E2,1.85E2,1.085E3,3.5E1,1E0,3.2E1,5E0,6E0,1E0,1.212E3,2E2,8.2E1,2.79E2,7E1,1.15E2,6.81E2,4.04E2,3E0,2E0,1.23E2,1.089E3,2.3E1,1.77E2,5.7E1,2.5E1,2.5E1,2.54E2,4.9E1,2.1E1,5.9E1,5.6E1,3.6E1,6.45E2,2.43E2,1.61E2,7.3E1,5E1,9.19E2,1.7E2,2E1,3E0,3.1E1,1.46E2,3E1,2.7E1,4E0,2.1E1,2E0,2.3E1,6.4E1,1.9E2,4.4E1,5E0,1E1,1.1E1,4.7E1,1.2E1,2.7E1,2.9E1,9E0,2.7E1,6.12E2,3.3E1,8E0,2.35E2,1.59E2,2E0],"tree_param":{"num_deleted":"0","num_feature":"10","num_nodes":"79","size_leaf_vector":"1"}},{"base_weights":[1.4584105E3,-1.4608358E4,1.09399695E5,1.5227862E5,-2.096766E4,2.0185452E5,3.9587035E4,1.1393124E5,2.4223495E5,-5.981391E3,-5.9874418E4,2.4574667E5,-8.543111E3,-2.7074587E3,1.0397765E5,4.3965023E4,1.2322856E5,1.4335019E4,8.967562E4,-1.574729E4,4.721992E4,-4.2829496E4,-7.010465E4,1.866241E4,2.2338045E5,-3.747262E4,4.7462598E4,9.33163E4,-1.7518385E4,1.4256173E5,9.460981E4,2.4247908E3,7.969649E1,9.580389E3,5.6334604E3,4.839461E3,9.9701056E2,-2.4596753E3,-3.9517188E4,2.7408706E5,3.1431168E4,-2.8546793E4,-4.9587008E4,-6.1941453E4,-7.392878E4,-9.967213E3,2.311768E5,-3.618416E2,-3.8622566E4,3.4082703E3,8.986144E3,1.1672371E5,2.3270325E3,8.7107555E4,-2.5554168E4,7.8458706E3,3.9797876E3,4.7934917E3,1.5786355E3,-5.788689E2,1.028079E3,1.207522E3,-2.2424185E3,1.5214526E4,5.785912E2,2.6902886E3,1.0848257E3,3.667242E2,-1.4717762E3,-3.4878474E3,-2.3834065E3,-2.2748494E3,-3.2196624E3,-3.7184282E3,-2.5074974E2,1.4810422E3,-2.3116433E3,1.3381831E4,9.203906E3,-2.3750994E3,-1.4372228E3,7.0468695E2,4.4158337E1,6.21808E3,8.176719E2,8.32703E3,2.8180427E3,1.27174E3,-1.6151062E3],"categories":[0,4,5,8,9,10,12,13,14,15,17,0,1,2,3,4,5,8,9,12,13,14,15,0,8,10,12,13,14,15,18,21,0,1,2,3,7,8,9,10,11,12,13,14,15,16,17,18,20,21,0,0,1,2,4,5,6,8,9,10,11,12,13,14,15,16,17,0,8,10,12,14,0,1,2,3,4,5,8,9,10,11,12,13,14,15,17,0,1,3,4,5,6,7,9,10,11,12,0,1,2,3,4,5,6,7,8,9,10,11,12,13,14,16,17,0,1,3,4,5,6,7,8,9,10,11,12,13,14,15,16,17,0,1,3,4,5,6,7,8,9,10,11,12,0,1,2,3,4,5,7,8,9,10,11,12,13,14,15,16,17,18,19,20,21,3,6,10,12,0,2,3,4,5,6,7,8,9,10,11,12,8,9,0,8,10,12,1,8,10,12,14,15,0,1,3,4,5,6,7,8,9,10,11,12,13,14,15,16,17,19,20,21,22,0,1,3,4,5,6,7,8,9,10,11,12,1,2,8,10,12,14,15,17,18,22,0,1,2,3,5,6,7,8,9,10,11,12,13,14,15,16,17,18,19,20,21,1,2,22,0,1,2,3,4,5,6,7,8,9,10,11,12,13,14,15,16,0,1,2,3,4,6,7,8,9,10,11,12,13,14,16,0,1,3,5,7,8,10,10,0,1,2,3,4,6,7,8,9,10,11,12,13,14,15,16,17,18,19,20,21,0,1,2,3,4,6,7,8,9,10,11,12,0,1,2,3,4,6,7,8,9,10,11,12,13,14,15,16,17,18,19,20,21,0,1,2,3,4,5,6,7,8,9,10,11,12,13,14,16,17],"categories_nodes":[1,2,4,5,6,8,10,11,13,14,15,16,18,19,20,21,22,25,26,27,28,30,38,39,40,41,45,46,50,51,53],"categories_segments":[0,11,23,32,50,51,67,72,87,98,115,132,144,165,169,181,183,187,193,214,226,236,257,260,277,292,299,300,321,333,354],"categories_sizes":[11,12,9,18,1,16,5,15,11,17,17,12,21,4,12,2,4,6,21,12,10,21,3,17,15,7,1,21,12,21,17],"default_left":[0,1,1,1,1,1,1,0,1,1,1,1,1,1,1,1,1,0,1,1,1,1,1,0,0,1,1,1,1,1,1,0,0,0,0,0,0,1,1,1,1,1,0,0,1,1,1,0,1,0,1,1,0,1,0,0,0,0,0,0,0,0,0,0,0,0,0,0,0,0,0,0,0,0,0,0,0,0,0,0,0,0,0,0,0,0,0,0,0],"id":6,"left_children":[1,3,5,7,9,11,13,15,17,19,21,23,25,27,29,31,33,-1,35,37,39,41,43,-1,45,47,49,51,53,55,57,-1,-1,-1,-1,-1,-1,59,61,63,65,67,69,71,73,75,77,-1,79,-1,81,83,-1,85,87,-1,-1,-1,-1,-1,-1,-1,-1,-1,-1,-1,-1,-1,-1,-1,-1,-1,-1,-1,-1,-1,-1,-1,-1,-1,-1,-1,-1,-1,-1,-1,-1,-1,-1],"loss_changes":[5.421184E12,2.8909492E12,2.6060883E12,3.1736096E11,1.5284438E12,1.608956E12,6.321029E11,4.1418162E10,1.7101475E11,9.847877E11,1.2411575E11,3.2727263E11,5.2005294E10,2.0216506E11,1.9765592E10,1.8424463E9,2.3900127E10,0E0,2.0385587E9,5.0557108E11,1.04447816E12,2.522271E10,9.59316E9,0E0,2.2971154E11,4.5065626E8,8.1497334E9,1.537065E10,1.0563838E11,1.9727319E9,3.089105E9,0E0,0E0,0E0,0E0,0E0,0E0,2.1601622E11,1.9591227E11,1.4712727E11,5.8947895E10,3.1177687E9,3.873702E9,3.1583764E9,8.840413E9,8.5478897E9,1.5851586E11,0E0,3.888169E8,0E0,1.9448653E8,7.165657E9,0E0,1.2594369E10,4.0389796E10,0E0,0E0,0E0,0E0,0E0,0E0,0E0,0E0,0E0,0E0,0E0,0E0,0E0,0E0,0E0,0E0,0E0,0E0,0E0,0E0,0E0,0E0,0E0,0E0,0E0,0E0,0E0,0E0,0E0,0E0,0E0,0E0,0E0,0E0],"parents":[2147483647,0,0,1,1,2,2,3,3,4,4,5,5,6,6,7,7,8,8,9,9,10,10,11,11,12,12,13,13,14,14,15,15,16,16,18,18,19,19,20,20,21,21,22,22,24,24,25,25,26,26,27,27,28,28,29,29,30,30,37,37,38,38,39,39,40,40,41,41,42,42,43,43,44,44,45,45,46,46,48,48,50,50,51,51,53,53,54,54],"right_children":[2,4,6,8,10,12,14,16,18,20,22,24,26,28,30,32,34,-1,36,38,40,42,44,-1,46,48,50,52,54,56,58,-1,-1,-1,-1,-1,-1,60,62,64,66,68,70,72,74,76,78,-1,80,-1,82,84,-1,86,88,-1,-1,-1,-1,-1,-1,-1,-1,-1,-1,-1,-1,-1,-1,-1,-1,-1,-1,-1,-1,-1,-1,-1,-1,-1,-1,-1,-1,-1,-1,-1,-1,-1,-1],"split_conditions":[1E0,NaN,NaN,5.12E2,NaN,NaN,NaN,2.4E2,NaN,5.12E2,NaN,NaN,5.12E2,NaN,NaN,NaN,NaN,1.4335019E4,NaN,NaN,NaN,NaN,NaN,1.866241E4,5E0,NaN,NaN,NaN,NaN,1.6E1,NaN,2.4247908E3,7.969649E1,9.580389E3,5.6334604E3,4.839461E3,9.9701056E2,1.2E1,NaN,NaN,NaN,NaN,5E0,1E0,5.12E2,NaN,NaN,-3.618416E2,2.56E2,3.4082703E3,NaN,NaN,2.3270325E3,NaN,1E0,7.8458706E3,3.9797876E3,4.7934917E3,1.5786355E3,-5.788689E2,1.028079E3,1.207522E3,-2.2424185E3,1.5214526E4,5.785912E2,2.6902886E3,1.0848257E3,3.667242E2,-1.4717762E3,-3.4878474E3,-2.3834065E3,-2.2748494E3,-3.2196624E3,-3.7184282E3,-2.5074974E2,1.4810422E3,-2.3116433E3,1.3381831E4,9.203906E3,-2.3750994E3,-1.4372228E3,7.0468695E2,4.4158337E1,6.21808E3,8.176719E2,8.32703E3,2.8180427E3,1.27174E3,-1.6151062E3],"split_indices":[6,1,1,4,2,2,7,4,1,4,2,1,4,0,1,1,0,0,2,0,0,1,2,0,3,2,2,0,2,3,2,0,0,0,0,0,0,3,2,1,1,0,3,9,4,0,2,0,4,0,0,2,0,1,9,0,0,0,0,0,0,0,0,0,0,0,0,0,0,0,0,0,0,0,0,0,0,0,0,0,0,0,0,0,0,0,0,0,0],"split_type":[0,1,1,0,1,1,1,0,1,0,1,1,0,1,1,1,1,0,1,1,1,1,1,0,0,1,1,1,1,0,1,0,0,0,0,0,0,0,1,1,1,1,0,0,0,1,1,0,0,0,1,1,0,1,0,0,0,0,0,0,0,0,0,0,0,0,0,0,0,0,0,0,0,0,0,0,0,0,0,0,0,0,0,0,0,0,0,0,0],"sum_hessian":[3.124E3,2.72E3,4.04E2,9.9E1,2.621E3,1.73E2,2.31E2,7.1E1,2.8E1,1.893E3,7.28E2,1.43E2,3E1,1.4E2,9.1E1,9E0,6.2E1,2.1E1,7E0,1.6E3,2.93E2,2.75E2,4.53E2,1.9E1,1.24E2,2E1,1E1,1.8E1,1.22E2,1.5E1,7.6E1,8E0,1E0,6E0,5.6E1,6E0,1E0,1.027E3,5.73E2,1.8E1,2.75E2,9E1,1.85E2,1.5E2,3.03E2,4E0,1.2E2,1E0,1.9E1,6E0,4E0,1.1E1,7E0,8E0,1.14E2,1.1E1,4E0,7.4E1,2E0,7.36E2,2.91E2,4.4E1,5.29E2,1.6E1,2E0,8.2E1,1.93E2,2E0,8.8E1,1.3E1,1.72E2,2.2E1,1.28E2,3.01E2,2E0,2E0,2E0,6.5E1,5.5E1,8E0,1.1E1,2E0,2E0,1E1,1E0,1E0,7E0,1.3E1,1.01E2],"tree_param":{"num_deleted":"0","num_feature":"10","num_nodes":"89","size_leaf_vector":"1"}},{"base_weights":[1.3272892E3,2.145042E5,-5.350137E3,1.8626629E4,1.9179705E5,2.1805219E4,-4.3033543E4,1.7486838E4,1.7982758E5,6.2567163E3,8.2779305E4,-3.2021766E4,-6.577081E4,1.8884036E5,4.802578E3,2.4600932E4,-2.8431041E4,1.6957305E5,5.912232E4,1.8596645E4,-3.567376E4,-5.516654E4,-6.990533E4,1.9172373E5,-4.6906015E2,1.140146E5,1.381156E4,-1.7857174E4,-5.597839E4,2.0972366E5,1.3636097E5,1.5334061E5,4.7894027E4,2.5198643E3,4.756797E4,-1.3230964E4,-4.2493855E4,8.444053E3,-5.6841125E4,-2.4712134E3,-3.552477E3,9.65162E3,2.4702056E3,1.0894008E4,4.5818438E3,9.005718E1,2.2977683E3,-6.1613806E2,-2.6196714E3,-2.988616E3,-1.5492511E3,1.1355456E4,4.6818745E3,7.0986064E3,5.240404E2,1.8194086E4,5.8235024E3,3.3314172E3,1.5368042E3,3.310756E2,-1.7512465E3,4.5013354E3,7.257192E2,1.2078235E3,-1.0914568E3,-1.1334779E3,-2.3018965E3,1.2797323E3,-2.90218E2,-1.4362865E3,-2.9862896E3],"categories":[0,1,2,4,5,8,9,10,12,13,14,15,17,0,1,2,3,4,5,6,8,9,10,11,12,13,14,15,17,3,6,10,12,0,8,10,12,13,14,4,6,7,8,9,11,12,0,1,2,3,8,10,11,12,13,14,15,18,21,0,1,2,3,4,5,6,7,8,9,11,12,13,14,16,17,0,1,2,15,17,18,20,21,22,8,10,12,11,0,3,4,6,7,8,9,11,12,13,14,15,16,17,0,8,10,12,14,15,0,1,3,4,5,6,7,9,10,11,12,0,1,2,3,4,5,7,8,9,10,11,12,13,14,15,16,17,18,19,20,21,22,8,9,12,13,17,1,3,4,6,8,9,10,13,19,20,21,4,5,6,8,10,11,20,21,0,1,2,3,6,7,8,9,10,11,12,13,14,15,16,17,18,19,20,21,0,1,2,3,4,6,7,8,9,10,11,12,13,14,15,16,17,18,19,20,21,22,8,0,1,2,3,4,6,7,8,9,10,11,12,13,14,15,16,17,18,19,20,21,0,1,2,3,5,6,7,8,9,10,11,12,13,14,15,16,17,18,19,20,22,23,0,1,2,3,5,6,8,9,10,11,12,0,1,2,2,0,1,2,3,4,6,7,8,10,11,12,13,14,15,16,17,0,2,3,9,0,2,3],"categories_nodes":[0,1,2,5,6,8,9,10,11,12,13,15,16,17,18,20,21,22,23,25,27,29,30,31,32,33,34,36,37,38],"categories_segments":[0,13,29,33,34,39,46,59,75,84,87,88,102,108,119,141,146,157,165,185,207,208,229,251,262,265,266,282,285,286],"categories_sizes":[13,16,4,1,5,7,13,16,9,3,1,14,6,11,22,5,11,8,20,22,1,21,22,11,3,1,16,3,1,3],"default_left":[1,1,1,0,0,1,1,0,1,1,1,1,1,1,0,1,1,1,1,0,1,1,1,1,0,1,1,1,1,1,1,1,1,1,1,0,1,1,1,0,0,0,0,0,0,0,0,0,0,0,0,0,0,0,0,0,0,0,0,0,0,0,0,0,0,0,0,0,0,0,0],"id":7,"left_children":[1,3,5,-1,7,9,11,-1,13,15,17,19,21,23,-1,25,27,29,31,33,35,37,39,41,-1,43,45,47,49,51,53,55,57,59,61,63,65,67,69,-1,-1,-1,-1,-1,-1,-1,-1,-1,-1,-1,-1,-1,-1,-1,-1,-1,-1,-1,-1,-1,-1,-1,-1,-1,-1,-1,-1,-1,-1,-1,-1],"loss_changes":[4.4993227E12,2.7303294E11,3.1373722E12,0E0,9.968681E10,1.6889175E12,3.1937895E11,0E0,4.377595E10,9.049097E11,7.332611E11,1.6093544E11,1.4470218E10,4.352141E10,0E0,8.956125E11,1.4231113E11,7.408006E10,2.952183E11,2.7360307E10,1.2326496E11,1.3475611E10,3.4485043E9,3.8734397E9,0E0,2.1246155E11,3.2073348E11,6.7590586E10,1.1043865E10,4.5335052E10,3.0296965E10,1.9050175E11,8.0562815E10,6.237743E9,2.8164997E10,6.1605396E10,4.2516742E10,1.1260353E9,7.935623E9,0E0,0E0,0E0,0E0,0E0,0E0,0E0,0E0,0E0,0E0,0E0,0E0,0E0,0E0,0E0,0E0,0E0,0E0,0E0,0E0,0E0,0E0,0E0,0E0,0E0,0E0,0E0,0E0,0E0,0E0,0E0,0E0],"parents":[2147483647,0,0,1,1,2,2,4,4,5,5,6,6,8,8,9,9,10,10,11,11,12,12,13,13,15,15,16,16,17,17,18,18,19,19,20,20,21,21,22,22,23,23,25,25,26,26,27,27,28,28,29,29,30,30,31,31,32,32,33,33,34,34,35,35,36,36,37,37,38,38],"right_children":[2,4,6,-1,8,10,12,-1,14,16,18,20,22,24,-1,26,28,30,32,34,36,38,40,42,-1,44,46,48,50,52,54,56,58,60,62,64,66,68,70,-1,-1,-1,-1,-1,-1,-1,-1,-1,-1,-1,-1,-1,-1,-1,-1,-1,-1,-1,-1,-1,-1,-1,-1,-1,-1,-1,-1,-1,-1,-1,-1],"split_conditions":[NaN,NaN,NaN,1.8626629E4,8E0,NaN,NaN,1.7486838E4,NaN,NaN,NaN,NaN,NaN,NaN,4.802578E3,NaN,NaN,NaN,NaN,1.504E3,NaN,NaN,NaN,NaN,-4.6906015E2,NaN,1.2E1,NaN,1.6E1,NaN,NaN,NaN,NaN,NaN,NaN,1E0,NaN,NaN,NaN,-2.4712134E3,-3.552477E3,9.65162E3,2.4702056E3,1.0894008E4,4.5818438E3,9.005718E1,2.2977683E3,-6.1613806E2,-2.6196714E3,-2.988616E3,-1.5492511E3,1.1355456E4,4.6818745E3,7.0986064E3,5.240404E2,1.8194086E4,5.8235024E3,3.3314172E3,1.5368042E3,3.310756E2,-1.7512465E3,4.5013354E3,7.257192E2,1.2078235E3,-1.0914568E3,-1.1334779E3,-2.3018965E3,1.2797323E3,-2.90218E2,-1.4362865E3,-2.9862896E3],"split_indices":[1,1,0,0,3,7,2,0,0,2,1,2,2,8,0,1,2,0,2,3,1,8,8,2,0,2,3,1,3,2,8,0,5,5,1,9,5,1,5,0,0,0,0,0,0,0,0,0,0,0,0,0,0,0,0,0,0,0,0,0,0,0,0,0,0,0,0,0,0,0,0],"split_type":[1,1,1,0,0,1,1,0,1,1,1,1,1,1,0,1,1,1,1,0,1,1,1,1,0,1,0,1,0,1,1,1,1,1,1,0,1,1,1,0,0,0,0,0,0,0,0,0,0,0,0,0,0,0,0,0,0,0,0,0,0,0,0,0,0,0,0,0,0,0,0],"sum_hessian":[3.159E3,9.5E1,3.064E3,1E1,8.5E1,1.781E3,1.283E3,4E0,8.1E1,1.42E3,3.61E2,8.66E2,4.17E2,7.2E1,9E0,9.29E2,4.91E2,7.6E1,2.85E2,5.8E1,8.08E2,1.21E2,2.96E2,7.1E1,1E0,9.9E1,8.3E2,3.56E2,1.35E2,3.2E1,4.4E1,2.9E1,2.56E2,3.8E1,2E1,1.89E2,6.19E2,3E0,1.18E2,1.8E1,2.78E2,7E1,1E0,1.6E1,8.3E1,6.05E2,2.25E2,3.08E2,4.8E1,1.16E2,1.9E1,2.7E1,5E0,4.2E1,2E0,3E0,2.6E1,1.21E2,1.35E2,3.5E1,3E0,8E0,1.2E1,3.5E1,1.54E2,9.5E1,5.24E2,1E0,2E0,1.2E1,1.06E2],"tree_param":{"num_deleted":"0","num_feature":"10","num_nodes":"71","size_leaf_vector":"1"}},{"base_weights":[1.8469742E3,-1.2842207E4,1.0081441E5,1.3695594E5,-1.8842873E4,1.8282952E5,3.6546934E4,1.0070747E5,2.2140523E5,-2.7570025E4,4.2225023E4,2.1837998E5,-1.01716327E3,6.0377227E4,-3.6839332E4,8.454395E3,8.653405E4,1.3581606E4,8.876557E4,-6.1050156E3,-4.4161664E4,2.762174E5,2.4671463E4,3.1365056E5,1.9491692E5,-2.587934E4,5.1295125E4,8.7136875E4,1.3022556E4,-2.8536521E4,-4.706668E4,9.334483E4,1.6766846E4,4.8699507E3,1.807726E3,8.6495776E2,-5.4572348E4,-1.467779E4,-5.253387E4,1.4708078E4,5.8721187E3,3.6150312E4,-6.00398E3,1.9064076E4,2.1878523E5,4.2318612E5,1.8568364E5,7.371492E3,-2.97674E4,3.4130457E3,2.067715E4,9.4067836E4,-1.3857686E4,3.5724055E4,-3.1940494E4,-7.6856914E3,-3.0306418E4,-5.2007383E4,2.4270262E2,4.787535E3,-1.1549E3,1.1305106E3,-4.573336E2,-1.0132093E3,4.4989142E2,-1.9771543E3,-2.9930095E3,5.0089474E2,-1.2920469E3,-2.7911862E2,-2.7402715E3,2.8287585E3,1.2463884E3,4.7203668E2,-1.5939655E3,1.3711052E4,7.875929E3,3.8962523E4,2.2373936E3,9.660004E3,2.8151729E3,7.5946405E2,-2.0660216E2,-1.7567891E2,-1.6324702E3,1.2686127E3,4.741836E1,6.403882E3,4.222277E3,2.2372832E3,-1.4310916E3,3.167617E3,6.6487994E2,-1.8363538E3,-4.1603516E2,-3.733418E1,-4.8749E2,-3.7414923E2,-1.5811207E3,-1.240045E3,-2.9275208E3],"categories":[0,4,5,8,9,10,12,13,14,15,17,0,1,2,3,4,5,8,9,12,13,14,15,0,1,2,3,7,8,9,10,11,12,13,14,15,16,17,18,20,21,1,2,8,10,12,14,15,17,18,1,4,5,6,7,8,9,11,12,0,1,2,4,5,6,7,8,9,10,11,12,13,14,15,16,17,3,4,6,7,10,12,0,2,3,4,5,6,7,8,9,10,12,0,1,2,3,4,5,8,9,10,12,13,14,15,17,1,3,4,6,7,9,10,11,12,8,10,12,14,0,1,2,3,5,7,8,9,11,12,13,14,15,16,17,18,19,20,21,22,23,0,1,2,3,4,5,7,8,9,10,11,12,13,14,15,16,17,18,19,20,21,0,8,10,12,13,14,15,18,21,0,8,10,12,13,14,15,18,22,0,2,3,4,5,6,7,8,9,10,11,12,0,1,2,8,9,10,11,12,13,14,15,16,17,18,19,20,21,0,1,2,3,4,7,8,9,10,11,12,13,14,15,16,17,18,20,21,22,0,1,2,3,4,5,7,8,9,10,11,12,13,14,15,16,17,18,19,20,21,22,23,3,10,0,1,3,4,5,6,7,8,9,10,11,12,13,14,15,16,17,19,20,21,22,0,1,2,3,4,5,6,7,8,10,11,12,13,14,16,17,13,15,7,11,0,8,10,12,14,15,1,2,21,4,8,9,10,12,17,0,1,3,4,5,6,8,9,10,11,12,8,9,17,0,1,2,3,4,5,7,8,9,10,11,12,13,14,15,16,17,0,1,2,3,4,5,6,8,9,10,11,12,0,1,3,5,6,9,11,12,7,1,8,10,12,14,15,18,0,1,2,3,4,6,7,9,10,11,12,0,1,2,3,4,5,6,7,8,9,10,11,12,13,14,16,17,5,0,1,2,3,4,5,6,8,9,10,11,12,1,17],"categories_nodes":[1,2,5,6,7,8,9,10,11,13,14,16,18,19,20,21,22,23,24,25,26,27,28,31,32,36,37,38,41,42,44,45,46,47,48,50,51,52,53,55],"categories_segments":[0,11,23,41,50,59,76,82,93,107,116,120,141,162,171,180,192,209,229,252,254,275,291,293,294,295,301,304,310,321,324,341,353,361,362,369,380,397,398,410],"categories_sizes":[11,12,18,9,9,17,6,11,14,9,4,21,21,9,9,12,17,20,23,2,21,16,2,1,1,6,3,6,11,3,17,12,8,1,7,11,17,1,12,2],"default_left":[0,1,1,1,1,1,1,1,1,1,1,1,1,1,1,0,1,0,1,1,1,1,1,1,1,1,1,1,1,0,1,1,1,0,0,0,1,1,1,0,0,1,1,0,1,1,1,1,1,0,1,1,1,1,1,1,0,0,0,0,0,0,0,0,0,0,0,0,0,0,0,0,0,0,0,0,0,0,0,0,0,0,0,0,0,0,0,0,0,0,0,0,0,0,0,0,0,0,0,0,0],"id":8,"left_children":[1,3,5,7,9,11,13,15,17,19,21,23,25,27,29,-1,31,-1,33,35,37,39,41,43,45,47,49,51,53,55,57,59,61,-1,-1,63,65,67,69,-1,-1,71,73,-1,75,77,79,81,83,-1,85,87,89,91,93,95,97,99,-1,-1,-1,-1,-1,-1,-1,-1,-1,-1,-1,-1,-1,-1,-1,-1,-1,-1,-1,-1,-1,-1,-1,-1,-1,-1,-1,-1,-1,-1,-1,-1,-1,-1,-1,-1,-1,-1,-1,-1,-1,-1,-1],"loss_changes":[4.5893314E12,2.4736256E12,2.1438464E12,3.0218584E11,1.4102808E12,1.1701369E12,4.04452E11,5.902618E10,1.8241277E11,8.238377E11,1.3527346E12,2.7416488E11,4.0345403E10,2.1935705E11,3.497083E9,0E0,2.9320905E10,0E0,1.0207232E9,3.412414E11,3.213618E11,3.098175E10,1.0902177E11,9.622467E10,1.8066493E11,2.9343355E9,3.7831393E9,7.900234E10,6.6467676E10,1.02180454E9,6.409044E9,1.8740347E10,1.2667631E9,0E0,0E0,1.520894E11,7.725875E9,8.020652E10,1.080534E11,0E0,0E0,5.016394E10,3.4270114E10,0E0,4.354212E9,5.0412362E11,1.0581941E11,3.3255942E8,1.3228943E9,0E0,4.3908147E8,2.321875E10,8.20253E9,2.580056E10,2.1816812E9,5.001144E7,6.9447066E8,2.4641864E9,0E0,0E0,0E0,0E0,0E0,0E0,0E0,0E0,0E0,0E0,0E0,0E0,0E0,0E0,0E0,0E0,0E0,0E0,0E0,0E0,0E0,0E0,0E0,0E0,0E0,0E0,0E0,0E0,0E0,0E0,0E0,0E0,0E0,0E0,0E0,0E0,0E0,0E0,0E0,0E0,0E0,0E0,0E0],"parents":[2147483647,0,0,1,1,2,2,3,3,4,4,5,5,6,6,7,7,8,8,9,9,10,10,11,11,12,12,13,13,14,14,16,16,18,18,19,19,20,20,21,21,22,22,23,23,24,24,25,25,26,26,27,27,28,28,29,29,30,30,31,31,32,32,35,35,36,36,37,37,38,38,41,41,42,42,44,44,45,45,46,46,47,47,48,48,50,50,51,51,52,52,53,53,54,54,55,55,56,56,57,57],"right_children":[2,4,6,8,10,12,14,16,18,20,22,24,26,28,30,-1,32,-1,34,36,38,40,42,44,46,48,50,52,54,56,58,60,62,-1,-1,64,66,68,70,-1,-1,72,74,-1,76,78,80,82,84,-1,86,88,90,92,94,96,98,100,-1,-1,-1,-1,-1,-1,-1,-1,-1,-1,-1,-1,-1,-1,-1,-1,-1,-1,-1,-1,-1,-1,-1,-1,-1,-1,-1,-1,-1,-1,-1,-1,-1,-1,-1,-1,-1,-1,-1,-1,-1,-1,-1],"split_conditions":[1E0,NaN,NaN,5.12E2,5.12E2,NaN,NaN,NaN,NaN,NaN,NaN,NaN,5.12E2,NaN,NaN,8.454395E3,NaN,1.3581606E4,NaN,NaN,NaN,NaN,NaN,NaN,NaN,NaN,NaN,NaN,NaN,1E0,5.12E2,NaN,NaN,4.8699507E3,1.807726E3,1E0,NaN,NaN,NaN,1.4708078E4,5.8721187E3,NaN,NaN,1.9064076E4,NaN,NaN,NaN,NaN,NaN,3.4130457E3,NaN,NaN,NaN,NaN,5.12E2,NaN,2.4E2,5E2,2.4270262E2,4.787535E3,-1.1549E3,1.1305106E3,-4.573336E2,-1.0132093E3,4.4989142E2,-1.9771543E3,-2.9930095E3,5.0089474E2,-1.2920469E3,-2.7911862E2,-2.7402715E3,2.8287585E3,1.2463884E3,4.7203668E2,-1.5939655E3,1.3711052E4,7.875929E3,3.8962523E4,2.2373936E3,9.660004E3,2.8151729E3,7.5946405E2,-2.0660216E2,-1.7567891E2,-1.6324702E3,1.2686127E3,4.741836E1,6.403882E3,4.222277E3,2.2372832E3,-1.4310916E3,3.167617E3,6.6487994E2,-1.8363538E3,-4.1603516E2,-3.733418E1,-4.8749E2,-3.7414923E2,-1.5811207E3,-1.240045E3,-2.9275208E3],"split_indices":[6,1,1,4,4,2,2,0,1,0,0,1,4,0,2,0,8,0,2,2,2,0,2,2,8,0,2,1,1,9,4,0,1,0,0,9,2,2,1,0,0,0,1,0,1,0,0,0,2,0,0,1,0,0,4,2,4,4,0,0,0,0,0,0,0,0,0,0,0,0,0,0,0,0,0,0,0,0,0,0,0,0,0,0,0,0,0,0,0,0,0,0,0,0,0,0,0,0,0,0,0],"split_type":[0,1,1,0,0,1,1,1,1,1,1,1,0,1,1,0,1,0,1,1,1,1,1,1,1,1,1,1,1,0,0,1,1,0,0,0,1,1,1,0,0,1,1,0,1,1,1,1,1,0,1,1,1,1,0,1,0,0,0,0,0,0,0,0,0,0,0,0,0,0,0,0,0,0,0,0,0,0,0,0,0,0,0,0,0,0,0,0,0,0,0,0,0,0,0,0,0,0,0,0,0],"sum_hessian":[3.155E3,2.748E3,4.07E2,1.05E2,2.643E3,1.78E2,2.29E2,7.5E1,3E1,2.313E3,3.3E2,1.49E2,2.9E1,1.73E2,5.6E1,1.1E1,6.4E1,2.1E1,9E0,1.009E3,1.304E3,2.2E1,3.08E2,2.7E1,1.22E2,2E1,9E0,1.1E2,6.3E1,3.3E1,2.3E1,5.8E1,6E0,7E0,2E0,8.83E2,1.26E2,2.89E2,1.015E3,1.9E1,3E0,2.24E2,8.4E1,1.4E1,1.3E1,3E0,1.19E2,2E0,1.8E1,5E0,4E0,1.03E2,7E0,4.2E1,2.1E1,3E0,3E1,2.1E1,2E0,5.7E1,1E0,5E0,1E0,2.45E2,6.38E2,3.5E1,9.1E1,9E1,1.99E2,4.7E1,9.68E2,7.8E1,1.46E2,5.3E1,3.1E1,5E0,8E0,1E0,2E0,1.12E2,7E0,1E0,1E0,2E0,1.6E1,3E0,1E0,2E1,8.3E1,1E0,6E0,1.8E1,2.4E1,1.7E1,4E0,1E0,2E0,2E0,2.8E1,5E0,1.6E1],"tree_param":{"num_deleted":"0","num_feature":"10","num_nodes":"101","size_leaf_vector":"1"}},{"base_weights":[-7.2212286E2,-1.3961732E4,9.0352164E4,4.4509863E4,-2.5367828E4,1.2155748E5,-3.0623764E4,6.2422684E4,-1.633838E4,-1.300232E4,-5.2360355E4,1.6612497E5,6.94931E4,-3.8016977E4,-1.0005657E4,9.196282E4,2.075609E4,7.795317E4,-2.3043613E4,-4.94532E3,-4.0152754E4,-3.6607695E4,-5.978769E4,5.0728453E5,1.590016E5,2.4382586E4,1.0303572E5,-5.1040645E3,-4.2982344E4,1.0541843E4,-2.3967754E4,2.4595426E4,1.1978029E5,2.508367E4,-1.8133346E4,1.3444727E5,1.9707871E3,-2.8842964E3,-4.077469E4,-3.7445848E4,2.859879E3,2.3527998E4,-4.5627266E4,-3.9542793E4,-2.4838998E4,7.288008E3,-6.0220297E4,3.798846E4,5.788086E1,1.15489795E4,1.3816667E5,1.7762166E5,8.385687E3,1.4214652E5,8.50223E4,1.0545484E4,-1.4686419E4,-2.7525188E4,-4.8504836E4,9.5888965E2,-7.2065293E3,-3.211172E2,-1.2411687E3,3.883123E3,8.0606213E2,4.0444094E3,7.2454624E3,1.8993018E3,9.13501E2,-4.7389468E2,-1.9783184E3,8.375128E3,8.8203613E2,2.813453E2,-5.6177734E1,2.4637822E2,-2.0303291E3,-1.6572885E3,-3.1403276E3,4.2160908E1,-2.3927537E3,6.860522E2,-7.990117E2,-1.598725E2,3.7313047E3,-2.082817E3,-4.1291875E3,-1.8449359E3,-2.3445037E3,-5.988703E2,-1.371671E3,1.1301781E3,-2.675849E2,-2.6359478E3,-3.201492E3,4.1862124E3,7.568439E3,1.0393484E4,6.5953906E2,1.8233837E3,-4.6486618E2,7.6898296E3,3.239345E3,4.3695386E3,1.5008004E3,9.620828E2,6.164375E1,-1.4274883E2,-8.2408563E2,-3.6427814E2,-1.4194397E3,-3.560684E1,-2.4906316E3,1.998802E1,-7.5063495E2],"categories":[0,3,4,5,6,7,10,11,12,1,2,8,10,12,14,15,17,18,0,1,2,3,5,6,7,8,10,11,12,14,16,17,18,19,20,22,23,0,8,10,12,13,14,15,18,20,21,0,1,3,5,6,9,10,11,12,0,1,2,3,4,5,7,8,9,10,11,12,13,14,15,16,17,18,19,20,21,1,2,9,6,10,12,0,8,10,12,13,14,0,1,2,3,4,5,7,8,9,10,11,12,13,14,15,16,17,18,19,20,21,22,23,0,3,5,7,10,3,7,1,2,11,18,21,0,1,2,3,4,5,7,8,9,10,11,12,13,14,15,16,17,18,19,20,21,22,23,1,2,8,10,11,20,1,2,22,0,1,3,4,5,6,8,9,10,11,13,15,18,19,20,21,22,0,1,2,3,4,5,6,8,9,10,11,12,0,1,2,3,4,6,7,8,9,10,11,12,13,14,15,16,17,18,20,21,22,1,2,3,4,5,6,7,8,9,10,11,12,13,14,15,16,17,18,19,20,22,23,0,1,2,3,4,7,8,9,10,11,12,13,14,15,16,17,18,19,20,21,2,12,18,8,10,12,14,18,3,1,14,15,18,0,1,2,3,4,5,6,7,10,11,12,0,1,2,4,6,7,8,9,10,11,12,13,14,15,16,17,18,19,20,21,22,18,21,0,1,2,3,4,5,6,7,8,9,10,11,12,13,14,15,16,17,18,19,20,21,10,2,14,18,21,2,8,20,1,4,5,6,7,8,9,12,13,15,19,20,21,22,1,2,3,0,0,10,4,14,12,0,8,10,12,0,1,2,3,4,7,8,9,10,11,12,13,14,15,16,17,18,19,20,21,3,10,1,2,4,6,7,8,9,10,11,12,0,1,2,3,5,6,7,8,9,10,11,12,13,14,15,16,17,18,19,20,21,22,0,1,2,3,4,5,6,7,9,10,11,12,0,1,2,15,4,6,14,21,1],"categories_nodes":[1,2,3,4,5,7,8,9,10,11,12,13,14,16,17,18,20,22,23,24,25,26,27,28,29,30,31,33,34,35,36,37,38,39,40,42,43,44,45,46,51,52,53,54,55,56,57,58,60],"categories_segments":[0,9,18,37,47,56,77,80,83,89,112,113,117,119,124,147,153,156,173,185,206,228,248,251,256,257,261,272,293,295,317,318,322,325,339,342,343,345,347,348,352,372,374,384,406,418,419,422,426],"categories_sizes":[9,9,19,10,9,21,3,3,6,23,1,4,2,5,23,6,3,17,12,21,22,20,3,5,1,4,11,21,2,22,1,4,3,14,3,1,2,2,1,4,20,2,10,22,12,1,3,4,1],"default_left":[0,1,1,1,1,1,1,1,1,1,1,1,1,1,1,0,1,1,1,0,1,1,1,1,1,1,1,1,1,1,1,1,1,1,1,1,1,1,1,1,1,0,1,1,1,1,1,0,0,0,0,1,1,1,1,1,1,1,1,0,1,0,0,0,0,0,0,0,0,0,0,0,0,0,0,0,0,0,0,0,0,0,0,0,0,0,0,0,0,0,0,0,0,0,0,0,0,0,0,0,0,0,0,0,0,0,0,0,0,0,0,0,0,0,0],"id":9,"left_children":[1,3,5,7,9,11,13,15,17,19,21,23,25,27,29,31,33,35,37,39,41,43,45,47,49,51,53,55,57,59,61,63,65,67,69,71,73,75,77,79,81,83,85,87,89,91,93,-1,-1,-1,95,97,99,101,103,105,107,109,111,-1,113,-1,-1,-1,-1,-1,-1,-1,-1,-1,-1,-1,-1,-1,-1,-1,-1,-1,-1,-1,-1,-1,-1,-1,-1,-1,-1,-1,-1,-1,-1,-1,-1,-1,-1,-1,-1,-1,-1,-1,-1,-1,-1,-1,-1,-1,-1,-1,-1,-1,-1,-1,-1,-1,-1],"loss_changes":[3.7621145E12,1.8178536E12,1.4986592E12,4.8605364E11,7.603293E11,7.193745E11,1.2119196E10,4.2149924E11,6.628551E10,3.4214688E11,8.158341E10,3.300461E11,2.1991712E11,9.586098E9,6.8510464E9,3.7372586E11,2.4689644E10,2.9782921E10,3.419725E10,3.0654418E11,1.25879845E11,7.031587E9,1.4512292E10,3.8248828E11,2.1852874E11,1.5539693E11,4.7093973E10,1.5045111E9,3.1037194E9,1.670946E9,5.074637E7,2.5729974E10,1.2705766E11,1.0734584E10,2.407682E9,1.2489417E10,5.1575264E7,1.3755428E10,6.490284E9,9.330324E10,1.9972917E11,3.9841583E10,4.498791E10,1.8443469E9,1.3064745E9,8.953039E8,1.0398335E10,0E0,0E0,0E0,8.220259E10,2.7100283E10,2.9636921E10,1.2567118E10,5.193761E9,3.0021366E8,8.039066E7,7.28361E7,2.2771466E9,0E0,2.4350544E8,0E0,0E0,0E0,0E0,0E0,0E0,0E0,0E0,0E0,0E0,0E0,0E0,0E0,0E0,0E0,0E0,0E0,0E0,0E0,0E0,0E0,0E0,0E0,0E0,0E0,0E0,0E0,0E0,0E0,0E0,0E0,0E0,0E0,0E0,0E0,0E0,0E0,0E0,0E0,0E0,0E0,0E0,0E0,0E0,0E0,0E0,0E0,0E0,0E0,0E0,0E0,0E0,0E0,0E0],"parents":[2147483647,0,0,1,1,2,2,3,3,4,4,5,5,6,6,7,7,8,8,9,9,10,10,11,11,12,12,13,13,14,14,15,15,16,16,17,17,18,18,19,19,20,20,21,21,22,22,23,23,24,24,25,25,26,26,27,27,28,28,29,29,30,30,31,31,32,32,33,33,34,34,35,35,36,36,37,37,38,38,39,39,40,40,41,41,42,42,43,43,44,44,45,45,46,46,50,50,51,51,52,52,53,53,54,54,55,55,56,56,57,57,58,58,60,60],"right_children":[2,4,6,8,10,12,14,16,18,20,22,24,26,28,30,32,34,36,38,40,42,44,46,48,50,52,54,56,58,60,62,64,66,68,70,72,74,76,78,80,82,84,86,88,90,92,94,-1,-1,-1,96,98,100,102,104,106,108,110,112,-1,114,-1,-1,-1,-1,-1,-1,-1,-1,-1,-1,-1,-1,-1,-1,-1,-1,-1,-1,-1,-1,-1,-1,-1,-1,-1,-1,-1,-1,-1,-1,-1,-1,-1,-1,-1,-1,-1,-1,-1,-1,-1,-1,-1,-1,-1,-1,-1,-1,-1,-1,-1,-1,-1,-1],"split_conditions":[1E0,NaN,NaN,NaN,NaN,NaN,1.6E1,NaN,NaN,NaN,NaN,NaN,NaN,NaN,NaN,1E0,NaN,NaN,NaN,1E0,NaN,1.6E1,NaN,NaN,NaN,NaN,NaN,NaN,NaN,NaN,NaN,NaN,1.6E1,NaN,NaN,NaN,NaN,NaN,NaN,NaN,NaN,2.4E1,NaN,NaN,NaN,NaN,NaN,3.798846E4,5.788086E1,1.15489795E4,8E0,NaN,NaN,NaN,NaN,NaN,NaN,NaN,NaN,9.5888965E2,NaN,-3.211172E2,-1.2411687E3,3.883123E3,8.0606213E2,4.0444094E3,7.2454624E3,1.8993018E3,9.13501E2,-4.7389468E2,-1.9783184E3,8.375128E3,8.8203613E2,2.813453E2,-5.6177734E1,2.4637822E2,-2.0303291E3,-1.6572885E3,-3.1403276E3,4.2160908E1,-2.3927537E3,6.860522E2,-7.990117E2,-1.598725E2,3.7313047E3,-2.082817E3,-4.1291875E3,-1.8449359E3,-2.3445037E3,-5.988703E2,-1.371671E3,1.1301781E3,-2.675849E2,-2.6359478E3,-3.201492E3,4.1862124E3,7.568439E3,1.0393484E4,6.5953906E2,1.8233837E3,-4.6486618E2,7.6898296E3,3.239345E3,4.3695386E3,1.5008004E3,9.620828E2,6.164375E1,-1.4274883E2,-8.2408563E2,-3.6427814E2,-1.4194397E3,-3.560684E1,-2.4906316E3,1.998802E1,-7.5063495E2],"split_indices":[6,0,2,8,2,0,3,2,0,0,2,8,7,0,0,9,2,8,8,9,2,3,8,0,2,8,2,2,2,5,2,0,3,2,2,2,8,2,8,8,2,3,5,0,8,2,2,0,0,0,3,2,0,0,2,0,0,2,8,0,2,0,0,0,0,0,0,0,0,0,0,0,0,0,0,0,0,0,0,0,0,0,0,0,0,0,0,0,0,0,0,0,0,0,0,0,0,0,0,0,0,0,0,0,0,0,0,0,0,0,0,0,0,0,0],"split_type":[0,1,1,1,1,1,0,1,1,1,1,1,1,1,1,0,1,1,1,0,1,0,1,1,1,1,1,1,1,1,1,1,0,1,1,1,1,1,1,1,1,0,1,1,1,1,1,0,0,0,0,1,1,1,1,1,1,1,1,0,1,0,0,0,0,0,0,0,0,0,0,0,0,0,0,0,0,0,0,0,0,0,0,0,0,0,0,0,0,0,0,0,0,0,0,0,0,0,0,0,0,0,0,0,0,0,0,0,0,0,0,0,0,0,0],"sum_hessian":[3.118E3,2.723E3,3.95E2,4.44E2,2.279E3,3.14E2,8.1E1,3.43E2,1.01E2,1.564E3,7.15E2,1.68E2,1.46E2,5.9E1,2.2E1,2E2,1.43E2,6E0,9.5E1,1.207E3,3.57E2,2.31E2,4.84E2,2E0,1.66E2,6.3E1,8.3E1,8E0,5.1E1,9E0,1.3E1,5.9E1,1.41E2,1.29E2,1.4E1,3E0,3E0,4.5E1,5E1,2.33E2,9.74E2,2.8E1,3.29E2,1.83E2,4.8E1,3E0,4.81E2,1E0,1E0,3.5E1,1.31E2,5E0,5.8E1,2.4E1,5.9E1,3E0,5E0,1.5E1,3.6E1,6E0,3E0,1E0,1.2E1,7E0,5.2E1,5.7E1,8.4E1,4.3E1,8.6E1,1.1E1,3E0,2E0,1E0,1E0,2E0,3.8E1,7E0,3.9E1,1.1E1,5E1,1.83E2,6.18E2,3.56E2,1.9E1,9E0,2.99E2,3E1,1.39E2,4.4E1,9E0,3.9E1,1E0,2E0,1.67E2,3.14E2,2.7E1,1.04E2,4E0,1E0,2.2E1,3.6E1,2E1,4E0,5.6E1,3E0,1E0,2E0,1E0,4E0,1E0,1.4E1,1E0,3.5E1,2E0,1E0],"tree_param":{"num_deleted":"0","num_feature":"10","num_nodes":"115","size_leaf_vector":"1"}},{"base_weights":[-1.7268753E2,1.73819E5,-6.571522E3,1.21386414E5,2.415183E5,5.7318863E4,-1.7584531E4,1.4209666E4,1.0579607E5,2.5618075E5,3.3558743E3,1.312906E5,3.8452945E4,-3.4095803E3,-4.8965074E4,1.0991342E5,2.0674754E4,1.8124342E4,2.2544105E5,9.710124E3,9.431695E4,1.09708016E5,2.9735023E4,-9.570759E3,4.8126492E4,-3.3801344E4,-5.591221E4,1.4585916E5,9.597812E4,3.5990251E3,-1.02103314E3,2.410294E5,8.058728E4,6.1047816E4,1.25480984E5,8.956913E3,9.863862E4,3.890067E4,-6.8193335E3,2.676251E4,-1.8020139E4,1.453416E5,2.252972E4,-2.3182877E4,-3.869557E4,-4.773263E4,-6.088766E4,9.072464E3,3.4082063E3,5.4934927E3,1.4873463E3,1.3190726E4,7.674406E3,4.505862E3,1.0616868E3,1.157594E3,4.6379883E3,6.455766E3,5.929926E2,4.1338125E3,6.2974785E3,1.2938054E3,2.4089817E3,3.340502E2,-1.5587816E3,2.1619666E3,-1.173746E3,-1.3895238E3,3.035302E2,1.0134163E4,2.0041354E3,1.4466918E3,-9.093815E2,1.2824606E3,-1.20512E3,-2.0168553E3,-1.3994722E3,-1.0930079E3,-2.5398953E3,-3.064453E3,-6.2250696E2],"categories":[0,2,4,5,8,9,10,12,13,14,15,17,0,1,2,3,8,9,10,11,12,13,14,15,16,17,18,19,20,21,22,0,1,2,3,4,5,6,8,9,10,11,12,13,14,15,17,0,1,2,3,5,6,7,8,9,10,11,12,13,14,15,16,17,18,19,20,22,23,0,1,2,3,4,5,6,7,8,9,11,12,13,14,16,17,0,8,10,12,13,14,15,18,20,21,0,1,2,3,7,8,10,11,12,13,14,15,16,17,18,19,20,21,22,23,0,1,2,3,4,6,7,8,9,10,11,12,13,14,15,16,17,18,20,21,22,0,1,2,3,4,7,8,9,10,11,12,13,14,15,16,17,18,19,20,21,22,0,1,2,3,4,5,8,9,10,11,12,13,14,15,16,17,18,19,20,21,22,0,8,10,12,13,14,11,0,1,2,4,5,8,9,10,11,12,13,14,15,17,0,0,1,2,3,4,5,6,7,8,9,10,11,12,13,14,15,16,17,18,19,20,22,23,0,1,2,3,4,6,7,8,10,11,12,13,15,16,4,8,9,12,13,17,0,1,2,3,4,5,6,7,8,9,10,11,12,13,14,15,16,8,9,0,8,10,12,0,2,3,4,5,7,8,9,10,12,13,14,15,16,17,0,1,2,4,5,7,8,9,10,12,13,14,15,16,17,0,1,2,3,4,5,6,7,8,9,10,11,12,13,14,15,16,17,18,19,20,21,0,1,2,3,4,5,6,7,8,9,11,12,13,14,15,16,17,0,0,1,2,0,1,4,6,9,10,19,20,21,8,9],"categories_nodes":[0,2,3,4,5,6,8,9,11,12,14,16,18,20,21,22,23,24,25,26,27,28,32,34,37,39,41,42,43,45],"categories_segments":[0,12,31,47,69,85,95,115,136,157,178,184,185,199,200,223,237,243,260,262,266,281,296,318,335,336,339,340,341,348],"categories_sizes":[12,19,16,22,16,10,20,21,21,21,6,1,14,1,23,14,6,17,2,4,15,15,22,17,1,3,1,1,7,2],"default_left":[1,1,1,1,1,1,1,0,1,1,0,1,1,1,1,0,1,0,1,0,1,1,1,1,1,1,1,1,1,0,0,1,1,1,1,0,1,1,0,1,1,1,1,1,1,1,1,0,0,0,0,0,0,0,0,0,0,0,0,0,0,0,0,0,0,0,0,0,0,0,0,0,0,0,0,0,0,0,0,0,0],"id":10,"left_children":[1,3,5,7,9,11,13,-1,15,17,-1,19,21,23,25,27,29,-1,31,-1,33,35,37,39,41,43,45,47,49,-1,-1,51,53,55,57,-1,59,61,63,65,67,69,71,73,75,77,79,-1,-1,-1,-1,-1,-1,-1,-1,-1,-1,-1,-1,-1,-1,-1,-1,-1,-1,-1,-1,-1,-1,-1,-1,-1,-1,-1,-1,-1,-1,-1,-1,-1,-1],"loss_changes":[3.4525083E12,3.6114452E11,2.1055512E12,1.3237931E11,1.029914E11,6.0899105E11,1.1350076E12,0E0,1.875601E10,5.87968E10,0E0,1.8870475E11,2.153989E11,5.589834E11,8.175393E10,1.4552859E10,9.903613E9,0E0,6.186533E10,0E0,5.247412E10,1.1535024E10,1.0580427E11,4.8307628E11,4.6454332E11,1.2199133E10,1.9192087E10,2.6344129E10,3.7214585E10,0E0,0E0,2.3336059E10,9.146593E8,3.3905066E10,1.0443882E10,0E0,4.845109E9,2.9208609E10,2.1252653E10,2.4685768E11,3.0050678E11,2.2726908E11,3.9640007E10,4.3001815E9,1.8762301E9,1.5543861E10,5.73073E9,0E0,0E0,0E0,0E0,0E0,0E0,0E0,0E0,0E0,0E0,0E0,0E0,0E0,0E0,0E0,0E0,0E0,0E0,0E0,0E0,0E0,0E0,0E0,0E0,0E0,0E0,0E0,0E0,0E0,0E0,0E0,0E0,0E0,0E0],"parents":[2147483647,0,0,1,1,2,2,3,3,4,4,5,5,6,6,8,8,9,9,11,11,12,12,13,13,14,14,15,15,16,16,18,18,20,20,21,21,22,22,23,23,24,24,25,25,26,26,27,27,28,28,31,31,32,32,33,33,34,34,36,36,37,37,38,38,39,39,40,40,41,41,42,42,43,43,44,44,45,45,46,46],"right_children":[2,4,6,8,10,12,14,-1,16,18,-1,20,22,24,26,28,30,-1,32,-1,34,36,38,40,42,44,46,48,50,-1,-1,52,54,56,58,-1,60,62,64,66,68,70,72,74,76,78,80,-1,-1,-1,-1,-1,-1,-1,-1,-1,-1,-1,-1,-1,-1,-1,-1,-1,-1,-1,-1,-1,-1,-1,-1,-1,-1,-1,-1,-1,-1,-1,-1,-1,-1],"split_conditions":[NaN,5.12E2,NaN,NaN,NaN,NaN,NaN,1.4209666E4,NaN,NaN,3.3558743E3,NaN,NaN,5.12E2,NaN,1E0,NaN,1.8124342E4,NaN,9.710124E3,NaN,NaN,NaN,NaN,NaN,NaN,NaN,NaN,NaN,3.5990251E3,-1.02103314E3,3.2E1,NaN,8E0,NaN,8.956913E3,1.6E1,NaN,1.024E3,NaN,2.56E2,NaN,NaN,NaN,1.6E1,NaN,5.12E2,9.072464E3,3.4082063E3,5.4934927E3,1.4873463E3,1.3190726E4,7.674406E3,4.505862E3,1.0616868E3,1.157594E3,4.6379883E3,6.455766E3,5.929926E2,4.1338125E3,6.2974785E3,1.2938054E3,2.4089817E3,3.340502E2,-1.5587816E3,2.1619666E3,-1.173746E3,-1.3895238E3,3.035302E2,1.0134163E4,2.0041354E3,1.4466918E3,-9.093815E2,1.2824606E3,-1.20512E3,-2.0168553E3,-1.3994722E3,-1.0930079E3,-2.5398953E3,-3.064453E3,-6.2250696E2],"split_indices":[1,4,2,1,8,1,2,0,8,2,0,2,2,4,2,9,1,0,1,0,7,8,1,1,1,1,2,1,1,0,0,3,2,3,1,0,3,7,4,5,4,7,2,8,3,1,4,0,0,0,0,0,0,0,0,0,0,0,0,0,0,0,0,0,0,0,0,0,0,0,0,0,0,0,0,0,0,0,0,0,0],"split_type":[1,0,1,1,1,1,1,0,1,1,0,1,1,0,1,0,1,0,1,0,1,1,1,1,1,1,1,1,1,0,0,0,1,0,1,0,0,1,0,1,0,1,1,1,0,1,0,0,0,0,0,0,0,0,0,0,0,0,0,0,0,0,0,0,0,0,0,0,0,0,0,0,0,0,0,0,0,0,0,0,0],"sum_hessian":[3.099E3,1.09E2,2.99E3,6.3E1,4.6E1,4.39E2,2.551E3,4E0,5.9E1,4.2E1,4E0,8.8E1,3.51E2,1.758E3,7.93E2,5.6E1,3E0,7E0,3.5E1,3.1E1,5.7E1,3.7E1,3.14E2,1.571E3,1.87E2,2.51E2,5.42E2,1.3E1,4.3E1,1E0,2E0,3.1E1,4E0,2.9E1,2.8E1,3E0,3.4E1,2.51E2,6.3E1,2.96E2,1.275E3,3.8E1,1.49E2,8.1E1,1.7E2,2.09E2,3.33E2,8E0,5E0,3.5E1,8E0,2.3E1,8E0,3E0,1E0,1.4E1,1.5E1,2.7E1,1E0,2.4E1,1E1,1.06E2,1.45E2,4.1E1,2.2E1,2.23E2,7.3E1,9.07E2,3.68E2,2.4E1,1.4E1,1.29E2,2E1,1E0,8E1,1.45E2,2.5E1,2.3E1,1.86E2,3.3E2,3E0],"tree_param":{"num_deleted":"0","num_feature":"10","num_nodes":"81","size_leaf_vector":"1"}},{"base_weights":[-4.4477252E2,-1.2679917E4,8.821265E4,4.310494E4,-2.3578232E4,1.5916377E5,3.4262445E4,1.4529852E5,2.8433324E4,-1.2023425E4,-4.5831336E4,3.707349E4,1.5099231E5,6.0972E2,8.6120055E4,9.213999E4,2.3637688E5,2.2251898E4,2.2283923E5,-1.7520023E4,2.1528723E4,1.1708764E5,-4.702887E4,2.5404158E5,1.26612836E5,9.060484E4,-9.144833E3,5.9613403E3,3.9522305E3,9.4826086E4,-1.13987114E2,1.2545022E4,3.522161E3,3.279414E4,-2.7801844E4,1.3745147E4,-1.24931E3,-1.0059015E4,-4.1987496E4,4.639545E4,1.0294043E4,6.3375723E3,1.7192157E3,-9.850296E3,-4.9459996E4,2.6137386E5,1.0351445E3,1.4648256E5,-8.470554E3,9.836381E4,-6.2568752E1,-2.0685652E4,4.04267E4,6.42241E3,4.114058E3,2.464269E3,7.1076355E2,1.5833698E3,-1.878791E3,1.7260783E2,-1.2065498E3,-1.7915674E3,-2.454423E3,4.259457E3,1.5036522E3,6.883819E2,-1.9509169E3,-3.5529147E2,-2.4781755E3,-7.511552E2,-2.5823438E3,1.4803093E4,9.378035E3,7.543246E3,-6.9697894E2,-1.1198483E3,5.7069604E3,5.9651577E3,2.2594053E3,1.802428E3,-1.341393E3,3.3926594E3,8.9743634E2],"categories":[0,3,4,5,6,7,9,10,11,12,0,1,2,3,4,5,8,9,12,13,14,15,0,1,2,4,5,8,9,10,11,12,13,14,15,17,4,6,10,12,0,1,2,3,4,5,7,8,9,10,11,12,13,14,15,16,17,18,19,20,21,22,23,0,1,2,4,5,6,7,8,9,10,12,13,14,15,16,17,0,1,2,3,4,5,8,9,10,12,13,14,15,17,0,1,3,4,5,6,7,8,9,10,11,12,0,1,2,3,4,5,6,7,8,9,10,11,12,13,14,16,17,2,0,2,3,4,5,6,7,8,9,10,11,12,0,1,2,5,8,10,11,20,21,2,0,1,3,5,6,8,9,10,12,13,15,19,20,21,22,23,0,1,2,3,4,7,8,9,10,11,12,13,14,16,0,1,2,4,5,6,7,8,9,10,12,13,14,15,16,17,0,2,3,1,4,6,8,9,10,11,12,1,3,5,6,9,11,12,1,0,1,3,4,5,6,7,8,9,10,11,12,0,1,3,4,5,6,7,8,9,12,13,14,16,8,9,10,11,13,15,17,4,8,9,12,13,0,1,5,8,9,12,13,15,20,0,1,2,4,5,6,8,9,10,12,6,1,2,3,4,6,7,8,10,11,13,16,18,19,20,21,22,0,2,0,0,1,0,2,3],"categories_nodes":[1,2,3,4,5,6,10,12,13,14,15,16,17,18,19,20,21,22,23,24,25,29,33,34,37,38,39,43,44,45,47,48,49,52],"categories_segments":[0,10,22,36,40,63,64,79,93,105,122,123,135,144,145,161,175,191,194,202,209,210,222,235,242,247,256,266,267,283,284,285,286,288],"categories_sizes":[10,12,14,4,23,1,15,14,12,17,1,12,9,1,16,14,16,3,8,7,1,12,13,7,5,9,10,1,16,1,1,1,2,3],"default_left":[0,1,1,1,1,1,1,1,1,1,1,0,1,1,1,1,1,1,1,1,1,1,1,1,1,1,1,0,0,1,0,0,0,1,1,0,0,1,1,1,0,0,0,1,1,1,0,1,1,1,0,0,1,0,0,0,0,0,0,0,0,0,0,0,0,0,0,0,0,0,0,0,0,0,0,0,0,0,0,0,0,0,0],"id":11,"left_children":[1,3,5,7,9,11,13,15,17,19,21,-1,23,25,27,29,31,33,35,37,39,41,43,45,47,49,51,-1,-1,53,-1,-1,-1,55,57,-1,-1,59,61,63,65,-1,-1,67,69,71,-1,73,75,77,-1,79,81,-1,-1,-1,-1,-1,-1,-1,-1,-1,-1,-1,-1,-1,-1,-1,-1,-1,-1,-1,-1,-1,-1,-1,-1,-1,-1,-1,-1,-1,-1],"loss_changes":[3.3811574E12,1.6662213E12,1.4414654E12,6.675752E11,5.8879155E11,6.6364454E11,3.768999E11,2.493494E11,4.6731162E11,2.7885542E11,1.5827088E11,0E0,3.7482555E11,1.1670637E11,1.0486612E10,9.600106E9,3.0524703E10,2.0248499E11,1.6170136E11,2.3653014E11,5.9028152E10,4.3711693E8,6.983293E10,4.5915832E10,3.5822227E11,9.388319E9,6.948779E10,0E0,0E0,4.615471E9,0E0,0E0,0E0,9.611821E10,4.0133734E10,0E0,0E0,1.8945176E11,1.1486626E10,3.922972E10,2.5888293E10,0E0,0E0,4.9883986E9,5.4199976E10,1.8722849E10,0E0,8.365408E10,3.329162E10,7.97048E9,0E0,3.511749E10,1.2961436E10,0E0,0E0,0E0,0E0,0E0,0E0,0E0,0E0,0E0,0E0,0E0,0E0,0E0,0E0,0E0,0E0,0E0,0E0,0E0,0E0,0E0,0E0,0E0,0E0,0E0,0E0,0E0,0E0,0E0,0E0],"parents":[2147483647,0,0,1,1,2,2,3,3,4,4,5,5,6,6,7,7,8,8,9,9,10,10,12,12,13,13,14,14,15,15,16,16,17,17,18,18,19,19,20,20,21,21,22,22,23,23,24,24,25,25,26,26,29,29,33,33,34,34,37,37,38,38,39,39,40,40,43,43,44,44,45,45,47,47,48,48,49,49,51,51,52,52],"right_children":[2,4,6,8,10,12,14,16,18,20,22,-1,24,26,28,30,32,34,36,38,40,42,44,46,48,50,52,-1,-1,54,-1,-1,-1,56,58,-1,-1,60,62,64,66,-1,-1,68,70,72,-1,74,76,78,-1,80,82,-1,-1,-1,-1,-1,-1,-1,-1,-1,-1,-1,-1,-1,-1,-1,-1,-1,-1,-1,-1,-1,-1,-1,-1,-1,-1,-1,-1,-1,-1],"split_conditions":[1E0,NaN,NaN,NaN,NaN,NaN,NaN,5.12E2,1.024E3,5.12E2,NaN,3.707349E4,NaN,NaN,NaN,NaN,NaN,NaN,NaN,NaN,NaN,NaN,NaN,NaN,NaN,NaN,5.12E2,5.9613403E3,3.9522305E3,NaN,-1.13987114E2,1.2545022E4,3.522161E3,NaN,NaN,1.3745147E4,-1.24931E3,NaN,NaN,NaN,1.024E3,6.3375723E3,1.7192157E3,NaN,NaN,NaN,1.0351445E3,NaN,NaN,NaN,-6.2568752E1,1E0,NaN,6.42241E3,4.114058E3,2.464269E3,7.1076355E2,1.5833698E3,-1.878791E3,1.7260783E2,-1.2065498E3,-1.7915674E3,-2.454423E3,4.259457E3,1.5036522E3,6.883819E2,-1.9509169E3,-3.5529147E2,-2.4781755E3,-7.511552E2,-2.5823438E3,1.4803093E4,9.378035E3,7.543246E3,-6.9697894E2,-1.1198483E3,5.7069604E3,5.9651577E3,2.2594053E3,1.802428E3,-1.341393E3,3.3926594E3,8.9743634E2],"split_indices":[6,0,1,1,0,8,7,4,4,4,1,0,1,0,1,5,0,8,0,8,1,1,5,0,0,8,4,0,0,0,0,0,0,1,1,0,0,1,8,0,4,0,0,8,8,7,0,5,7,5,0,9,5,0,0,0,0,0,0,0,0,0,0,0,0,0,0,0,0,0,0,0,0,0,0,0,0,0,0,0,0,0,0],"split_type":[0,1,1,1,1,1,1,0,0,0,1,0,1,1,1,1,1,1,1,1,1,1,1,1,1,1,0,0,0,1,0,0,0,1,1,0,0,1,1,1,0,0,0,1,1,1,0,1,1,1,0,0,1,0,0,0,0,0,0,0,0,0,0,0,0,0,0,0,0,0,0,0,0,0,0,0,0,0,0,0,0,0,0],"sum_hessian":[3.115E3,2.738E3,3.77E2,4.47E2,2.291E3,1.62E2,2.15E2,5.5E1,3.92E2,1.509E3,7.82E2,1E0,1.61E2,1.31E2,8.4E1,3.6E1,1.9E1,3.81E2,1.1E1,1.297E3,2.12E2,5E0,7.77E2,2.9E1,1.32E2,1.2E1,1.19E2,1.2E1,7.2E1,3.5E1,1E0,1.7E1,2E0,3.15E2,6.6E1,9E0,2E0,9.95E2,3.02E2,6.5E1,1.47E2,4E0,1E0,4.8E1,7.29E2,2.8E1,1E0,1.15E2,1.7E1,1.1E1,1E0,9.7E1,2.2E1,7E0,2.8E1,1.66E2,1.49E2,9E0,5.7E1,5.08E2,4.87E2,1.65E2,1.37E2,1.8E1,4.7E1,1.38E2,9E0,4.6E1,2E0,4.4E1,6.85E2,1.7E1,1.1E1,1.12E2,3E0,1.6E1,1E0,7E0,4E0,9E0,8.8E1,9E0,1.3E1],"tree_param":{"num_deleted":"0","num_feature":"10","num_nodes":"83","size_leaf_vector":"1"}},{"base_weights":[6.1236835E1,5.8335164E4,-1.5647821E4,1.3208153E5,3.044644E4,5.498714E4,-2.4202557E4,1.6131155E5,3.011145E4,2.367373E4,1.7221295E5,1.3717362E5,3.1634809E4,-1.523498E4,-4.8871785E4,4.689813E4,1.7345912E5,-1.9295498E3,8.229867E4,3.012812E4,-4.204852E4,1.363587E4,4.6916035E4,7.484975E4,1.7777144E5,1.891397E4,6.627936E4,1.7975992E5,-1.6069692E4,-4.082253E4,-5.537419E4,9.93309E4,-1.1396906E4,1.9187845E5,1.0689333E5,5.780918E3,-1.3670313E4,9.538651E4,1.9188527E4,2.4011688E4,8.110848E4,-1.4295204E4,-5.0274707E4,8.004898E4,-1.5539425E3,1.16348266E5,4.8477016E4,1.5756046E4,7.7523706E3,3.7206484E3,1.1537914E4,6.730685E4,2.4418399E2,3.798908E3,1.1930085E4,-2.5012422E4,-1.9464885E3,-2.0094295E4,-4.4386562E4,-5.5729984E4,1.1533932E3,6.653447E3,3.2953364E3,-2.2646926E3,3.0097976E3,3.9793372E3,1.0549155E4,5.6604946E3,2.6334263E3,1.0863269E3,1.1032E2,1.27222404E2,-8.7781555E2,5.477799E3,5.818133E2,-1.2115508E2,1.3600052E3,1.4280105E3,-1.5003197E3,2.9777097E3,4.798487E3,3.2435312E2,-1.1449719E3,9.388926E1,-2.600881E3,5.8021753E3,2.4355107E3,2.962073E3,8.64607E3,3.5010505E3,-1.345233E2,5.116543E2,4.757485E3,3.4137097E3,3.7675977E2,-1.5045503E3,1.0499388E3,2.8155269E3,-6.543332E2,1.4282484E3,-1.101245E3,1.1842001E3,-2.239628E3,-2.5806108E3,-3.0126484E3,1.837758E3,-1.7512535E3],"categories":[3,5,6,7,9,10,11,12,0,1,2,4,5,8,9,12,13,14,17,0,1,2,3,8,10,12,13,14,15,17,18,20,21,22,0,1,2,3,4,7,8,9,10,11,12,13,14,15,16,17,18,19,20,21,0,1,2,3,4,5,8,9,12,13,14,16,17,0,8,10,12,13,14,15,20,0,1,12,13,14,15,18,21,0,2,3,5,6,7,8,9,10,11,12,0,1,2,4,5,7,8,9,10,11,12,13,14,15,16,17,0,8,10,12,10,15,0,1,2,4,5,6,8,9,12,13,14,15,17,2,15,18,0,1,3,5,6,7,8,9,10,11,12,13,14,15,16,17,18,19,20,21,22,0,4,6,10,11,22,8,9,0,1,2,3,4,7,8,9,10,11,12,13,14,15,16,17,18,19,20,21,22,0,1,2,3,4,5,6,8,9,10,11,12,13,14,15,16,17,0,1,2,3,4,5,8,9,10,11,12,13,14,15,16,17,18,19,20,21,22,0,1,2,3,4,6,8,9,10,11,12,8,9,0,1,2,3,4,5,7,8,9,10,11,12,13,14,15,16,17,18,19,20,21,22,23,1,3,4,5,6,7,8,9,10,11,12,0,2,0,1,2,3,4,5,6,7,8,9,12,13,14,15,16,17,4,8,8,9,8,9,17,0,1,2,3,4,5,6,7,8,9,10,11,12,13,14,15,16,17,18,19,20,22,23,3,3,5,7,9,10,4,6,9,19,21,0,1,3,4,5,6,8,9,10,11,13,20,21,6,10,10],"categories_nodes":[0,1,2,3,5,6,9,10,13,14,15,16,17,18,20,22,23,24,25,26,29,31,34,36,37,39,41,42,43,46,56,57,58,59,60],"categories_segments":[0,8,19,34,54,67,75,83,94,110,114,116,129,132,153,159,161,182,199,220,231,233,256,267,269,285,287,289,292,315,316,321,326,339,341],"categories_sizes":[8,11,15,20,13,8,8,11,16,4,2,13,3,21,6,2,21,17,21,11,2,23,11,2,16,2,2,3,23,1,5,5,13,2,1],"default_left":[1,1,1,1,1,1,1,0,0,1,1,0,0,1,1,1,1,1,1,0,1,0,1,1,1,1,1,0,1,1,1,1,0,0,1,0,1,1,0,1,0,1,1,1,0,0,1,0,0,0,1,1,0,0,0,0,1,1,1,1,1,0,0,0,0,0,0,0,0,0,0,0,0,0,0,0,0,0,0,0,0,0,0,0,0,0,0,0,0,0,0,0,0,0,0,0,0,0,0,0,0,0,0,0,0,0,0],"id":12,"left_children":[1,3,5,7,9,11,13,15,17,19,21,23,25,27,29,31,33,35,37,39,41,-1,43,45,47,49,51,53,55,57,59,61,63,65,67,69,71,73,75,77,79,81,83,85,-1,87,89,-1,-1,-1,91,93,-1,-1,-1,95,97,99,101,103,105,-1,-1,-1,-1,-1,-1,-1,-1,-1,-1,-1,-1,-1,-1,-1,-1,-1,-1,-1,-1,-1,-1,-1,-1,-1,-1,-1,-1,-1,-1,-1,-1,-1,-1,-1,-1,-1,-1,-1,-1,-1,-1,-1,-1,-1,-1],"loss_changes":[2.8799352E12,1.3698492E12,1.4986957E12,5.4058995E11,4.625528E11,5.100186E11,4.8837978E11,1.8922314E11,7.0388285E10,1.9851842E11,2.6424889E11,1.3597632E11,9.129502E10,2.670556E11,2.8567536E10,4.6980612E10,1.3643022E11,2.5232502E9,1.1385274E10,1.3026325E11,8.870085E9,0E0,3.0914028E10,2.1720515E10,6.038107E10,6.259281E10,3.203973E9,2.4618418E10,2.0417839E11,1.8833015E10,6.560416E9,2.511913E8,2.214074E10,1.9559245E11,4.3128586E9,9.210268E8,7.37787E8,1.4152245E10,7.5848154E8,9.422389E10,8.699183E9,2.1155197E9,3.0063903E9,3.371692E9,0E0,1.8832278E10,1.8928361E10,0E0,0E0,0E0,1.4081989E10,2.6656113E9,0E0,0E0,0E0,2.319669E11,4.083048E11,4.4807547E9,7.3342976E9,2.8687073E9,5.1514035E9,0E0,0E0,0E0,0E0,0E0,0E0,0E0,0E0,0E0,0E0,0E0,0E0,0E0,0E0,0E0,0E0,0E0,0E0,0E0,0E0,0E0,0E0,0E0,0E0,0E0,0E0,0E0,0E0,0E0,0E0,0E0,0E0,0E0,0E0,0E0,0E0,0E0,0E0,0E0,0E0,0E0,0E0,0E0,0E0,0E0,0E0],"parents":[2147483647,0,0,1,1,2,2,3,3,4,4,5,5,6,6,7,7,8,8,9,9,10,10,11,11,12,12,13,13,14,14,15,15,16,16,17,17,18,18,19,19,20,20,22,22,23,23,24,24,25,25,26,26,27,27,28,28,29,29,30,30,31,31,32,32,33,33,34,34,35,35,36,36,37,37,38,38,39,39,40,40,41,41,42,42,43,43,45,45,46,46,50,50,51,51,55,55,56,56,57,57,58,58,59,59,60,60],"right_children":[2,4,6,8,10,12,14,16,18,20,22,24,26,28,30,32,34,36,38,40,42,-1,44,46,48,50,52,54,56,58,60,62,64,66,68,70,72,74,76,78,80,82,84,86,-1,88,90,-1,-1,-1,92,94,-1,-1,-1,96,98,100,102,104,106,-1,-1,-1,-1,-1,-1,-1,-1,-1,-1,-1,-1,-1,-1,-1,-1,-1,-1,-1,-1,-1,-1,-1,-1,-1,-1,-1,-1,-1,-1,-1,-1,-1,-1,-1,-1,-1,-1,-1,-1,-1,-1,-1,-1,-1,-1],"split_conditions":[NaN,NaN,NaN,NaN,1.024E3,NaN,NaN,1E0,1E0,NaN,NaN,1E0,1E0,NaN,NaN,NaN,NaN,NaN,NaN,1E0,NaN,1.363587E4,NaN,NaN,NaN,NaN,NaN,1.024E3,2.56E2,NaN,5.12E2,NaN,1E0,5E2,NaN,1E0,NaN,NaN,1.024E3,NaN,1.024E3,NaN,NaN,NaN,-1.5539425E3,2.048E3,NaN,1.5756046E4,7.7523706E3,3.7206484E3,1.024E3,1.024E3,2.4418399E2,3.798908E3,1.1930085E4,1E0,NaN,NaN,NaN,NaN,NaN,6.653447E3,3.2953364E3,-2.2646926E3,3.0097976E3,3.9793372E3,1.0549155E4,5.6604946E3,2.6334263E3,1.0863269E3,1.1032E2,1.27222404E2,-8.7781555E2,5.477799E3,5.818133E2,-1.2115508E2,1.3600052E3,1.4280105E3,-1.5003197E3,2.9777097E3,4.798487E3,3.2435312E2,-1.1449719E3,9.388926E1,-2.600881E3,5.8021753E3,2.4355107E3,2.962073E3,8.64607E3,3.5010505E3,-1.345233E2,5.116543E2,4.757485E3,3.4137097E3,3.7675977E2,-1.5045503E3,1.0499388E3,2.8155269E3,-6.543332E2,1.4282484E3,-1.101245E3,1.1842001E3,-2.239628E3,-2.5806108E3,-3.0126484E3,1.837758E3,-1.7512535E3],"split_indices":[0,1,2,2,4,1,2,9,6,2,0,6,6,1,2,1,1,2,2,6,8,0,1,2,1,2,0,4,4,1,4,8,6,4,0,9,0,1,4,1,4,1,1,8,0,4,0,0,0,0,4,4,0,0,0,6,0,8,8,8,0,0,0,0,0,0,0,0,0,0,0,0,0,0,0,0,0,0,0,0,0,0,0,0,0,0,0,0,0,0,0,0,0,0,0,0,0,0,0,0,0,0,0,0,0,0,0],"split_type":[1,1,1,1,0,1,1,0,0,1,1,0,0,1,1,1,1,1,1,0,1,0,1,1,1,1,1,0,0,1,0,1,0,0,1,0,1,1,0,1,0,1,1,1,0,0,1,0,0,0,0,0,0,0,0,0,1,1,1,1,1,0,0,0,0,0,0,0,0,0,0,0,0,0,0,0,0,0,0,0,0,0,0,0,0,0,0,0,0,0,0,0,0,0,0,0,0,0,0,0,0,0,0,0,0,0,0],"sum_hessian":[3.144E3,6.67E2,2.477E3,1.82E2,4.85E2,2.67E2,2.21E3,1.41E2,4.1E1,4.64E2,2.1E1,5.8E1,2.09E2,1.622E3,5.88E2,1.4E1,1.27E2,2.6E1,1.5E1,4.23E2,4.1E1,1.1E1,1E1,2.4E1,3.4E1,1.54E2,5.5E1,6E0,1.616E3,2.66E2,3.22E2,7E0,7E0,9.8E1,2.9E1,1.6E1,1E1,1.2E1,3E0,3.79E2,4.4E1,1E1,3.1E1,7E0,3E0,8E0,1.6E1,3E0,3.1E1,1.7E1,1.37E2,5.4E1,1E0,3E0,3E0,9.89E2,6.27E2,4E1,2.26E2,3.2E2,2E0,2E0,5E0,5E0,2E0,1.5E1,8.3E1,2.5E1,4E0,2E0,1.4E1,2E0,8E0,1E1,2E0,1E0,2E0,3.5E2,2.9E1,2E1,2.4E1,3E0,7E0,1E0,3E1,2E0,5E0,5E0,3E0,1.1E1,5E0,1.36E2,1E0,5.3E1,1E0,8.91E2,9.8E1,1E2,5.27E2,1E0,3.9E1,1E0,2.25E2,1.74E2,1.46E2,1E0,1E0],"tree_param":{"num_deleted":"0","num_feature":"10","num_nodes":"107","size_leaf_vector":"1"}},{"base_weights":[-3.1085056E2,-1.1629136E4,7.964534E4,4.1331715E4,-2.1770908E4,1.497312E5,2.6248635E4,1.204718E5,2.45691E4,-1.3675897E4,-4.742185E4,1.8256548E5,-1.2643712E3,-5.722699E3,7.88411E4,8.3774375E4,1.8923311E5,1.9431178E4,1.7451848E5,2.3642455E4,-1.803525E4,-4.2566812E4,-5.5712434E4,1.4799991E4,1.6196673E5,3.9620754E4,-2.5732227E4,6.4118445E4,-1.5980224E4,5.1346187E3,7.171885E4,6.155766E4,1.0061879E5,1.088519E4,8.085493E4,2.8688492E4,-3.270104E4,1.2324379E4,-1.5520797E3,7.093232E4,1.4337048E4,-2.7633596E4,-3.408862E3,-3.8710457E4,-5.4455496E4,1.43912115E1,-5.5993875E4,3.7337606E5,1.5328048E5,5.121362E4,1.9492281E4,1.0256243E3,-2.9245764E4,9.193596E4,1.7854562E4,7.1902586E4,-2.5337102E4,4.143687E3,3.1875437E3,3.7152258E3,1.2591262E3,6.528446E3,3.6779382E3,4.94032E3,2.1344873E3,2.2913088E3,5.391589E2,1.9958342E3,-1.8130829E3,2.1653562E3,4.7835186E3,3.5063262E3,3.7053647E2,1.183149E1,-1.6148032E3,2.5247925E3,-7.205867E2,-1.8922412E2,-1.9812828E3,-2.739394E3,-6.71692E2,-7.797287E2,-2.8059263E3,3.6120402E4,8.114701E2,8.060358E3,3.410654E2,2.7465146E3,7.2283984E2,1.2167874E3,-1.18126175E2,-1.130611E3,-2.4234253E3,4.8865947E3,8.4941644E2,1.1641462E3,5.2316017E1,7.4164126E3,2.5735208E3,6.314655E2,-1.3623558E3],"categories":[0,3,4,5,6,7,9,10,11,12,0,1,2,3,4,5,8,9,12,13,14,15,0,2,4,5,8,9,10,11,12,13,14,17,0,8,10,12,13,14,15,20,0,1,2,3,7,8,9,10,11,12,13,14,15,16,17,18,20,21,0,1,2,3,18,21,22,6,8,10,11,22,0,1,2,3,4,5,8,9,10,11,12,13,14,15,17,3,10,0,1,3,4,5,6,7,9,10,11,12,0,1,2,3,4,5,6,7,8,9,10,11,12,13,14,16,17,0,1,2,4,5,6,7,8,9,10,11,12,13,14,15,16,17,0,1,2,3,8,10,11,20,21,8,10,0,1,2,3,4,7,8,9,12,13,14,15,16,17,8,0,2,3,0,1,2,3,4,5,7,8,9,10,11,12,13,14,15,16,17,18,19,20,21,22,23,0,1,3,4,5,6,7,8,9,10,11,12,13,14,15,16,17,18,19,20,22,10,17,0,1,2,3,4,6,7,8,9,10,11,12,13,14,15,16,17,18,19,20,21,1,2,8,10,12,14,15,17,18,22,1,2,3,4,5,6,8,9,10,11,12,0,1,2,4,5,6,7,8,9,10,11,12,13,14,15,16,17,0,2,3,4,5,6,7,8,9,10,11,12,13,14,17,0,1,2,3,4,7,8,9,10,11,12,13,14,15,16,17,18,19,20,21,22,0,1,3,4,5,6,7,8,9,12,13,14,15,16,1,4,12,13,14,18,21,22,0,1,2,3,4,5,8,9,10,11,12,13,14,15,16,17,18,19,20,21,22,4,8,9,11,12,13,17,0,3,5,7,9,10,1,3,4,5,9,13,15,18,19,20,21,0,3,5,10,11,0,1,2,3,4,5,6,8,9,10,11,12,0,1,3,6,9,11,12,0,1,3,4,5,6,7,8,9,10,11,12,2,6,14,0,1,3,4,5,6,7,8,9,10,11,12,0,2,3,0,1,2,3,4,5,6,7,8,9,10,11,12,13,14,16,17,4,5,6,13,21],"categories_nodes":[1,2,3,4,5,6,9,10,11,12,13,14,16,17,18,19,21,22,24,25,26,27,28,30,31,32,34,35,36,40,41,42,43,46,47,48,49,50,52,53,54,55,56],"categories_segments":[0,10,22,34,42,60,61,67,72,87,89,100,117,134,143,145,159,160,163,186,207,209,230,240,251,268,283,304,318,326,347,354,360,371,376,388,395,407,408,410,422,425,442],"categories_sizes":[10,12,12,8,18,1,6,5,15,2,11,17,17,9,2,14,1,3,23,21,2,21,10,11,17,15,21,14,8,21,7,6,11,5,12,7,12,1,2,12,3,17,5],"default_left":[0,1,1,1,1,1,1,1,1,1,1,1,1,1,1,0,1,1,1,1,1,1,1,0,1,1,1,1,1,0,1,1,1,0,1,1,1,0,0,0,1,1,1,1,1,0,1,1,1,1,1,0,1,1,1,1,1,0,0,0,0,0,0,0,0,0,0,0,0,0,0,0,0,0,0,0,0,0,0,0,0,0,0,0,0,0,0,0,0,0,0,0,0,0,0,0,0,0,0,0,0],"id":13,"left_children":[1,3,5,7,9,11,13,15,17,19,21,23,25,27,29,31,33,35,37,39,41,43,45,-1,47,49,51,53,55,-1,57,59,61,-1,63,65,67,-1,-1,69,71,73,75,77,79,-1,81,83,85,87,89,-1,91,93,95,97,99,-1,-1,-1,-1,-1,-1,-1,-1,-1,-1,-1,-1,-1,-1,-1,-1,-1,-1,-1,-1,-1,-1,-1,-1,-1,-1,-1,-1,-1,-1,-1,-1,-1,-1,-1,-1,-1,-1,-1,-1,-1,-1,-1,-1],"loss_changes":[2.8389029E12,1.476897E12,1.4518455E12,5.83395E11,4.783877E11,8.331471E11,3.7373336E11,1.7844614E11,2.7858554E11,2.859365E11,1.9887423E10,2.7450933E11,3.2031044E10,1.0060384E11,6.90448E9,1.3265961E10,6.2623187E10,1.7226265E11,1.8517901E11,7.995251E10,2.2059755E11,1.4076019E10,3.1840666E9,0E0,1.6129432E11,1.8018898E9,3.849553E9,2.1523554E10,1.02143476E11,0E0,7.607091E8,9.720537E9,1.3088129E10,0E0,5.778268E8,9.217624E10,1.5409897E10,0E0,0E0,1.6358588E10,5.9374748E10,1.233246E11,3.7082628E11,8.480391E9,4.0932147E8,0E0,1.319895E8,4.8689814E11,1.3356866E11,1.6217498E8,6.9261184E8,0E0,1.3268019E9,3.1180063E9,7.0556826E8,1.1103994E10,8.393425E9,0E0,0E0,0E0,0E0,0E0,0E0,0E0,0E0,0E0,0E0,0E0,0E0,0E0,0E0,0E0,0E0,0E0,0E0,0E0,0E0,0E0,0E0,0E0,0E0,0E0,0E0,0E0,0E0,0E0,0E0,0E0,0E0,0E0,0E0,0E0,0E0,0E0,0E0,0E0,0E0,0E0,0E0,0E0,0E0],"parents":[2147483647,0,0,1,1,2,2,3,3,4,4,5,5,6,6,7,7,8,8,9,9,10,10,11,11,12,12,13,13,14,14,15,15,16,16,17,17,18,18,19,19,20,20,21,21,22,22,24,24,25,25,26,26,27,27,28,28,30,30,31,31,32,32,34,34,35,35,36,36,39,39,40,40,41,41,42,42,43,43,44,44,46,46,47,47,48,48,49,49,50,50,52,52,53,53,54,54,55,55,56,56],"right_children":[2,4,6,8,10,12,14,16,18,20,22,24,26,28,30,32,34,36,38,40,42,44,46,-1,48,50,52,54,56,-1,58,60,62,-1,64,66,68,-1,-1,70,72,74,76,78,80,-1,82,84,86,88,90,-1,92,94,96,98,100,-1,-1,-1,-1,-1,-1,-1,-1,-1,-1,-1,-1,-1,-1,-1,-1,-1,-1,-1,-1,-1,-1,-1,-1,-1,-1,-1,-1,-1,-1,-1,-1,-1,-1,-1,-1,-1,-1,-1,-1,-1,-1,-1,-1],"split_conditions":[1E0,NaN,NaN,NaN,NaN,NaN,NaN,5.12E2,1.024E3,NaN,NaN,NaN,NaN,NaN,NaN,5E2,NaN,NaN,NaN,NaN,2.56E2,NaN,NaN,1.4799991E4,NaN,NaN,NaN,NaN,NaN,5.1346187E3,NaN,NaN,NaN,1.088519E4,NaN,NaN,NaN,1.2324379E4,-1.5520797E3,1.024E3,NaN,NaN,NaN,NaN,1.024E3,1.43912115E1,NaN,NaN,NaN,NaN,NaN,1.0256243E3,NaN,NaN,NaN,NaN,NaN,4.143687E3,3.1875437E3,3.7152258E3,1.2591262E3,6.528446E3,3.6779382E3,4.94032E3,2.1344873E3,2.2913088E3,5.391589E2,1.9958342E3,-1.8130829E3,2.1653562E3,4.7835186E3,3.5063262E3,3.7053647E2,1.183149E1,-1.6148032E3,2.5247925E3,-7.205867E2,-1.8922412E2,-1.9812828E3,-2.739394E3,-6.71692E2,-7.797287E2,-2.8059263E3,3.6120402E4,8.114701E2,8.060358E3,3.410654E2,2.7465146E3,7.2283984E2,1.2167874E3,-1.18126175E2,-1.130611E3,-2.4234253E3,4.8865947E3,8.4941644E2,1.1641462E3,5.2316017E1,7.4164126E3,2.5735208E3,6.314655E2,-1.3623558E3],"split_indices":[6,0,1,1,2,2,7,4,4,2,8,1,0,0,1,4,1,8,1,1,4,1,5,0,8,2,1,2,2,0,0,1,1,0,2,1,2,0,0,4,2,1,0,8,4,0,0,0,0,0,0,0,8,0,5,1,8,0,0,0,0,0,0,0,0,0,0,0,0,0,0,0,0,0,0,0,0,0,0,0,0,0,0,0,0,0,0,0,0,0,0,0,0,0,0,0,0,0,0,0,0],"split_type":[0,1,1,1,1,1,1,0,0,1,1,1,1,1,1,0,1,1,1,1,0,1,1,0,1,1,1,1,1,0,1,1,1,0,1,1,1,0,0,0,1,1,1,1,0,0,1,1,1,1,1,0,1,1,1,1,1,0,0,0,0,0,0,0,0,0,0,0,0,0,0,0,0,0,0,0,0,0,0,0,0,0,0,0,0,0,0,0,0,0,0,0,0,0,0,0,0,0,0,0,0],"sum_hessian":[3.135E3,2.747E3,3.88E2,4.41E2,2.306E3,1.67E2,2.21E2,7.6E1,3.65E2,1.754E3,5.52E2,1.37E2,3E1,1.38E2,8.3E1,5.1E1,2.5E1,3.54E2,1.1E1,1.83E2,1.571E3,3.52E2,2E2,1.9E1,1.18E2,1.1E1,1.9E1,1.7E1,1.21E2,1.6E1,6.7E1,2.4E1,2.7E1,1.9E1,6E0,3.01E2,5.3E1,8E0,3E0,2.9E1,1.54E2,9.48E2,6.23E2,2.69E2,8.3E1,1E0,1.99E2,3E0,1.15E2,6E0,5E0,1E0,1.8E1,1E1,7E0,1.1E1,1.1E2,2.4E1,4.3E1,1.7E1,7E0,1.1E1,1.6E1,3E0,3E0,1.53E2,1.48E2,2E0,5.1E1,1.5E1,1.4E1,1.6E1,1.38E2,1.36E2,8.12E2,1.05E2,5.18E2,7E0,2.62E2,8.2E1,1E0,1E0,1.98E2,1E0,2E0,1.09E2,6E0,5E0,1E0,4E0,1E0,1.5E1,3E0,9E0,1E0,5E0,2E0,1E0,1E1,5E0,1.05E2],"tree_param":{"num_deleted":"0","num_feature":"10","num_nodes":"101","size_leaf_vector":"1"}},{"base_weights":[4.228686E2,1.5653116E5,-4.935443E3,1.0902508E5,2.076293E5,1.4173259E4,-3.1320488E4,1.6802386E5,7.158065E4,2.2672392E5,9.7572766E4,3.073935E3,5.8341746E4,-3.4126465E4,8.29863E3,9.467384E3,9.8326555E4,3.7023782E3,-3.690293E2,1.1499376E4,2.4045E3,1.1352183E5,2.7834031E4,3.5764645E4,-7.3458535E3,2.6190541E4,9.44025E4,-3.0246908E4,-5.5425727E4,4.1530454E3,5.4963955E3,6.061977E3,-9.7878284E2,1.2577558E5,9.999836E2,1.6687762E3,4.1877618E2,2.8606385E4,1.7008884E5,-5.6809637E4,-3.922083E3,1.0392923E4,3.612822E4,1.4662E5,7.377104E4,-2.4877074E4,-4.289686E4,-1.9467578E2,-2.7844463E3,1.3294255E4,-1.6729225E4,6.856876E3,1.7241477E3,3.6510056E3,6.503692E2,1.0594508E4,-9.3689923E2,-5.1819588E1,-3.1052463E3,5.0051245E2,-8.3875775E2,-6.074294E2,5.92728E2,1.896843E3,1.4019743E2,8.576188E3,5.5827866E3,4.214655E3,1.26365E3,-1.0698962E3,-2.600395E3,-1.7689271E3,-2.4158855E3,1.7184342E3,-2.536E2,-2.5022385E3,-5.447716E2],"categories":[0,1,2,4,5,8,9,10,12,13,14,15,17,3,6,10,12,1,4,6,8,9,11,12,0,4,5,6,8,9,10,11,12,0,0,1,2,3,4,5,8,9,10,11,12,13,14,15,17,11,0,1,2,3,5,6,7,8,9,10,11,12,13,14,15,16,17,18,19,20,22,23,0,2,0,3,5,6,7,9,10,11,12,1,2,3,4,6,7,8,9,10,11,12,13,14,15,16,17,7,0,1,2,4,5,7,8,9,10,11,12,13,14,15,16,17,0,1,2,3,4,5,6,7,8,9,11,12,13,14,15,16,17,1,2,5,6,7,10,13,15,19,20,21,22,4,6,10,0,1,2,3,4,6,7,8,9,11,12,0,3,4,5,6,7,8,9,11,12,13,14,16,17,0,2,4,8,9,17,4,8,9,12,13,14,15,0,1,2,3,4,6,7,8,11,12,13,16,0,1,3,4,5,6,7,9,10,11,12,1,2,3,6,10,11,12,4,8,12,8,10,17,8,9],"categories_nodes":[0,2,3,4,5,7,8,9,10,11,14,16,21,26,27,28,33,37,38,39,40,42,43,44,45,46,49],"categories_segments":[0,13,17,24,33,34,49,50,72,74,83,99,100,116,133,145,148,159,173,175,179,186,198,209,216,219,222],"categories_sizes":[13,4,7,9,1,15,1,22,2,9,16,1,16,17,12,3,11,14,2,4,7,12,11,7,3,3,2],"default_left":[1,1,1,1,1,1,1,1,1,1,1,1,0,1,1,0,1,0,0,0,0,1,0,1,0,0,1,1,1,0,0,0,0,1,0,0,0,1,1,1,1,0,1,1,1,1,1,0,0,1,0,0,0,0,0,0,0,0,0,0,0,0,0,0,0,0,0,0,0,0,0,0,0,0,0,0,0],"id":14,"left_children":[1,3,5,7,9,11,13,15,17,19,21,23,25,27,29,-1,31,-1,-1,-1,-1,33,35,37,39,41,43,45,47,-1,49,-1,-1,51,-1,-1,-1,53,55,57,59,61,63,65,67,69,71,-1,-1,73,75,-1,-1,-1,-1,-1,-1,-1,-1,-1,-1,-1,-1,-1,-1,-1,-1,-1,-1,-1,-1,-1,-1,-1,-1,-1,-1],"loss_changes":[2.6214544E12,2.298206E11,1.5281214E12,1.1168658E11,8.0850846E10,8.6166326E11,1.41803E11,1.259248E10,7.5589714E9,1.2842435E10,6.850642E9,4.791889E11,4.0679467E11,9.657254E10,1.7351086E10,0E0,2.128377E10,0E0,0E0,0E0,0E0,5.506507E9,4.3949824E7,3.220537E11,1.8047648E11,2.913896E10,1.6801936E11,6.740443E10,2.251686E9,0E0,1.460732E10,0E0,0E0,1.494655E9,0E0,0E0,0E0,2.2352056E11,1.3815497E11,2.0313768E10,1.7906211E11,2.5821322E9,6.8248535E9,2.0902576E10,5.961587E10,6.5905558E10,1.0476585E10,0E0,0E0,2.4171936E10,3.7305733E9,0E0,0E0,0E0,0E0,0E0,0E0,0E0,0E0,0E0,0E0,0E0,0E0,0E0,0E0,0E0,0E0,0E0,0E0,0E0,0E0,0E0,0E0,0E0,0E0,0E0,0E0],"parents":[2147483647,0,0,1,1,2,2,3,3,4,4,5,5,6,6,7,7,8,8,9,9,10,10,11,11,12,12,13,13,14,14,16,16,21,21,22,22,23,23,24,24,25,25,26,26,27,27,28,28,30,30,33,33,37,37,38,38,39,39,40,40,41,41,42,42,43,43,44,44,45,45,46,46,49,49,50,50],"right_children":[2,4,6,8,10,12,14,16,18,20,22,24,26,28,30,-1,32,-1,-1,-1,-1,34,36,38,40,42,44,46,48,-1,50,-1,-1,52,-1,-1,-1,54,56,58,60,62,64,66,68,70,72,-1,-1,74,76,-1,-1,-1,-1,-1,-1,-1,-1,-1,-1,-1,-1,-1,-1,-1,-1,-1,-1,-1,-1,-1,-1,-1,-1,-1,-1],"split_conditions":[NaN,5.12E2,NaN,NaN,NaN,NaN,5.12E2,NaN,NaN,NaN,NaN,NaN,1.024E3,5E2,NaN,9.467384E3,NaN,3.7023782E3,-3.690293E2,1.1499376E4,2.4045E3,NaN,1.2E1,1.024E3,5E0,5E2,NaN,NaN,NaN,4.1530454E3,5.5E1,6.061977E3,-9.7878284E2,NaN,9.999836E2,1.6687762E3,4.1877618E2,NaN,NaN,NaN,NaN,2.4E2,NaN,NaN,NaN,NaN,NaN,-1.9467578E2,-2.7844463E3,NaN,5E2,6.856876E3,1.7241477E3,3.6510056E3,6.503692E2,1.0594508E4,-9.3689923E2,-5.1819588E1,-3.1052463E3,5.0051245E2,-8.3875775E2,-6.074294E2,5.92728E2,1.896843E3,1.4019743E2,8.576188E3,5.5827866E3,4.214655E3,1.26365E3,-1.0698962E3,-2.600395E3,-1.7689271E3,-2.4158855E3,1.7184342E3,-2.536E2,-2.5022385E3,-5.447716E2],"split_indices":[1,4,0,0,0,7,4,1,8,8,5,0,4,4,1,0,0,0,0,0,0,1,3,4,3,4,1,8,8,0,3,0,0,0,0,0,0,1,5,1,1,4,1,0,0,1,1,0,0,1,3,0,0,0,0,0,0,0,0,0,0,0,0,0,0,0,0,0,0,0,0,0,0,0,0,0,0],"split_type":[1,0,1,1,1,1,0,1,1,1,1,1,0,0,1,0,1,0,0,0,0,1,0,0,0,0,1,1,1,0,0,0,0,1,0,0,0,1,1,1,1,0,1,1,1,1,1,0,0,1,0,0,0,0,0,0,0,0,0,0,0,0,0,0,0,0,0,0,0,0,0,0,0,0,0,0,0],"sum_hessian":[3.132E3,1.03E2,3.029E3,5.5E1,4.8E1,1.757E3,1.272E3,2E1,3.5E1,4E1,8E0,1.405E3,3.52E2,1.188E3,8.4E1,1.4E1,6E0,3.4E1,1E0,3.9E1,1E0,6E0,2E0,3.39E2,1.066E3,1.87E2,1.65E2,1.007E3,1.81E2,2E0,8.2E1,5E0,1E0,5E0,1E0,1E0,1E0,3.23E2,1.6E1,6.8E1,9.98E2,7.3E1,1.14E2,4.5E1,1.2E2,7.09E2,2.98E2,1E0,1.8E2,6.1E1,2.1E1,4E0,1E0,8.3E1,2.4E2,1.3E1,3E0,6E0,6.2E1,4.79E2,5.19E2,4E0,6.9E1,1.08E2,6E0,2.4E1,2.1E1,9.8E1,2.2E1,6.3E2,7.9E1,1.28E2,1.7E2,2.8E1,3.3E1,2E0,1.9E1],"tree_param":{"num_deleted":"0","num_feature":"10","num_nodes":"77","size_leaf_vector":"1"}},{"base_weights":[-1.0445492E2,1.5332486E5,-5.089489E3,2.939103E5,1.324118E5,-1.3817273E4,5.9279918E4,6.71185E3,3.3221953E5,8.964292E4,1.7711953E5,-3.6405317E3,-3.9670523E4,8.59662E4,-1.7189318E4,1.7467684E4,4.878664E3,1.4022881E5,6.1548637E4,2.0347994E5,8.433295E4,-1.0066728E4,3.2965723E4,-2.9553508E4,-4.570392E4,1.3942153E5,4.5406312E4,-2.1110834E4,2.8810076E3,7.90654E3,4.2018506E3,3.2382722E3,-9.543133E2,1.0475848E4,4.0830664E2,7.9972773E3,3.038857E3,8.844343E3,-1.92562E4,1.9705567E5,2.2588902E4,-1.993414E4,-3.3798125E4,-4.2267957E4,-5.1211137E4,1.9192384E5,1.1971474E5,1.7875521E4,7.033721E4,-2.4977408E4,3.782851E4,-2.6703802E2,1.8386917E3,4.899559E2,-1.2351447E3,1.1647109E4,1.1094485E3,3.8369023E3,9.7873535E2,5.272401E2,-1.0373335E3,-1.5885862E3,-2.3540647E3,-2.0051722E3,-2.5159834E3,-2.5920613E3,1.3072397E2,2.147121E4,5.732803E3,7.491786E3,3.5341282E3,1.661842E3,-1.8244395E3,5.1471406E3,3.1587373E3,4.4714902E2,-1.5299431E3,6.070572E3,-1.5851797E2],"categories":[0,1,2,4,5,8,9,10,12,13,14,15,17,0,1,2,3,4,5,6,8,9,10,11,12,13,14,15,17,0,8,10,12,13,14,15,18,20,21,3,10,0,1,3,4,5,6,8,9,10,11,12,1,4,6,7,8,9,11,12,0,0,8,10,12,14,0,1,2,3,4,5,6,7,8,9,11,12,13,14,15,16,0,0,7,0,2,0,1,2,4,5,6,7,8,9,10,11,12,0,3,5,6,7,10,12,0,2,3,4,5,6,7,8,9,10,11,12,8,9,0,8,10,0,1,2,3,5,6,8,9,10,11,12,0,1,2,22,0,1,2,3,4,5,6,7,8,9,10,11,12,13,14,15,16,0,1,2,3,4,5,8,9,10,11,12,13,14,15,16,17,18,19,20,21,22,0,1,2,3,5,7,8,10,8,8,0,1,2,3,4,5,6,7,8,9,10,11,12,13,14,15,16,0,1,2,3,4,6,7,8,9,10,11,12,13,14,15,16,17,18,19,20,21,8,13,14,0,1,2,3,4,5,6,7,8,9,10,11,12,13,14,16,17,8,9,10,13,15,0,1,2,3,4,5,6,7,8,9,11,12,13,14,15,16,17],"categories_nodes":[0,1,5,6,8,9,10,12,13,14,17,18,19,20,21,22,23,24,25,26,38,39,40,41,42,43,45,46,47,48,49,50],"categories_segments":[0,13,29,39,41,52,60,61,66,82,83,84,85,87,99,106,118,120,123,134,135,138,155,176,184,185,186,203,224,227,244,249],"categories_sizes":[13,16,10,2,11,8,1,5,16,1,1,1,2,12,7,12,2,3,11,1,3,17,21,8,1,1,17,21,3,17,5,17],"default_left":[1,1,0,0,1,1,1,0,1,1,1,1,1,1,1,0,0,1,1,1,1,1,1,1,1,1,1,1,0,0,0,0,0,0,0,0,0,1,1,1,1,1,1,1,1,1,1,1,1,1,1,0,0,0,0,0,0,0,0,0,0,0,0,0,0,0,0,0,0,0,0,0,0,0,0,0,0,0,0],"id":15,"left_children":[1,3,5,7,9,11,13,-1,15,17,19,21,23,25,27,-1,-1,29,31,33,35,37,39,41,43,45,47,49,-1,-1,-1,-1,-1,-1,-1,-1,-1,51,53,55,57,59,61,63,65,67,69,71,73,75,77,-1,-1,-1,-1,-1,-1,-1,-1,-1,-1,-1,-1,-1,-1,-1,-1,-1,-1,-1,-1,-1,-1,-1,-1,-1,-1,-1,-1],"loss_changes":[2.4062345E12,2.5215028E11,1.7126308E12,2.8807397E10,1.5238732E11,7.060209E11,7.442853E11,0E0,2.0965622E9,5.8164314E10,8.556734E10,4.536373E11,4.491759E10,5.790677E11,2.9086235E10,0E0,0E0,2.8062843E9,9.536528E9,3.6020683E10,9.871245E9,2.8517404E11,4.8593548E11,1.1003806E10,6.785794E9,9.704335E10,1.0512964E11,2.1683147E10,0E0,0E0,0E0,0E0,0E0,0E0,0E0,0E0,0E0,2.129465E11,1.7495599E11,1.0151225E11,4.2892673E10,2.4476262E9,3.8068224E9,3.158147E9,6.138495E9,5.012977E11,1.1789926E11,6.3845827E10,1.2413043E10,1.6672285E10,2.0945752E10,0E0,0E0,0E0,0E0,0E0,0E0,0E0,0E0,0E0,0E0,0E0,0E0,0E0,0E0,0E0,0E0,0E0,0E0,0E0,0E0,0E0,0E0,0E0,0E0,0E0,0E0,0E0,0E0],"parents":[2147483647,0,0,1,1,2,2,3,3,4,4,5,5,6,6,8,8,9,9,10,10,11,11,12,12,13,13,14,14,17,17,18,18,19,19,20,20,21,21,22,22,23,23,24,24,25,25,26,26,27,27,37,37,38,38,39,39,40,40,41,41,42,42,43,43,44,44,45,45,46,46,47,47,48,48,49,49,50,50],"right_children":[2,4,6,8,10,12,14,-1,16,18,20,22,24,26,28,-1,-1,30,32,34,36,38,40,42,44,46,48,50,-1,-1,-1,-1,-1,-1,-1,-1,-1,52,54,56,58,60,62,64,66,68,70,72,74,76,78,-1,-1,-1,-1,-1,-1,-1,-1,-1,-1,-1,-1,-1,-1,-1,-1,-1,-1,-1,-1,-1,-1,-1,-1,-1,-1,-1,-1],"split_conditions":[NaN,NaN,1E0,1E0,5.12E2,NaN,NaN,6.71185E3,NaN,NaN,NaN,5.12E2,NaN,NaN,NaN,1.7467684E4,4.878664E3,NaN,NaN,NaN,NaN,NaN,NaN,NaN,NaN,NaN,NaN,5.12E2,2.8810076E3,7.90654E3,4.2018506E3,3.2382722E3,-9.543133E2,1.0475848E4,4.0830664E2,7.9972773E3,3.038857E3,2.56E2,NaN,NaN,NaN,NaN,NaN,NaN,5.12E2,NaN,NaN,NaN,NaN,NaN,NaN,-2.6703802E2,1.8386917E3,4.899559E2,-1.2351447E3,1.1647109E4,1.1094485E3,3.8369023E3,9.7873535E2,5.272401E2,-1.0373335E3,-1.5885862E3,-2.3540647E3,-2.0051722E3,-2.5159834E3,-2.5920613E3,1.3072397E2,2.147121E4,5.732803E3,7.491786E3,3.5341282E3,1.661842E3,-1.8244395E3,5.1471406E3,3.1587373E3,4.4714902E2,-1.5299431E3,6.070572E3,-1.5851797E2],"split_indices":[1,1,6,6,4,2,0,0,0,0,7,4,2,1,7,0,0,7,0,5,0,0,0,1,2,0,7,4,0,0,0,0,0,0,0,0,0,4,2,1,2,0,1,1,4,1,2,1,1,1,1,0,0,0,0,0,0,0,0,0,0,0,0,0,0,0,0,0,0,0,0,0,0,0,0,0,0,0,0],"split_type":[1,1,0,0,0,1,1,0,1,1,1,0,1,1,1,0,0,1,1,1,1,1,1,1,1,1,1,0,0,0,0,0,0,0,0,0,0,0,1,1,1,1,1,1,0,1,1,1,1,1,1,0,0,0,0,0,0,0,0,0,0,0,0,0,0,0,0,0,0,0,0,0,0,0,0,0,0,0,0],"sum_hessian":[3.144E3,9.8E1,3.046E3,1.1E1,8.7E1,2.683E3,3.63E2,3E0,8E0,4.6E1,4.1E1,1.926E3,7.57E2,2.69E2,9.4E1,7E0,1E0,1.5E1,3.1E1,3.1E1,1E1,1.639E3,2.87E2,2.85E2,4.72E2,1.15E2,1.54E2,9E1,4E0,1E1,5E0,3E1,1E0,3E1,1E0,1E0,9E0,5.36E2,1.103E3,1.6E1,2.71E2,8.9E1,1.96E2,2.96E2,1.76E2,2.9E1,8.6E1,7.4E1,8E1,8.5E1,5E0,3.56E2,1.8E2,1.74E2,9.29E2,1.3E1,3E0,1.3E1,2.58E2,2E0,8.7E1,1.73E2,2.3E1,2.38E2,5.8E1,1.74E2,2E0,6E0,2.3E1,5.2E1,3.4E1,5.8E1,1.6E1,1.2E1,6.8E1,1.2E1,7.3E1,1E0,4E0],"tree_param":{"num_deleted":"0","num_feature":"10","num_nodes":"79","size_leaf_vector":"1"}},{"base_weights":[1.1444126E3,1.4801388E5,-3.7304932E3,1.3771585E4,1.2750882E5,4.677589E4,-1.2825719E4,8.74849E4,1.6926156E5,8.7952375E4,2.5561768E4,1.8601053E4,-2.3675186E4,6.4354365E3,3.396865E3,1.9344177E5,8.353175E4,1.3067957E5,5.9886625E4,3.3943242E4,-7.172518E3,7.7358375E4,8.879365E3,-2.6326195E4,1.9264754E4,2.148956E5,6.6474253E3,7.797345E3,3.0347773E3,1.2109342E5,2.756473E5,8.555648E4,3.9195348E4,7.7373125E4,2.9914041E4,3.9714448E3,-2.6725994E4,9.754755E4,-1.2094812E3,-1.1064246E4,4.523206E4,-2.0840457E4,-4.078576E4,2.871373E4,-2.7999436E4,1.1171793E4,4.316428E3,7.153871E3,5.0360283E3,1.6319817E4,4.353732E3,7.180185E3,2.0170101E3,2.9370146E3,1.1655894E3,4.4358994E3,1.2797479E3,5.71605E2,1.6996166E3,4.1074493E2,3.1168882E1,-1.171502E2,-1.6684442E3,1.7187799E3,6.5524766E3,3.045498E2,-1.5967069E3,1.1916068E3,-1.1201708E3,6.428122E3,1.399787E3,-8.944967E2,-2.276685E3,-1.6860566E3,-2.2643416E3,1.02383527E3,2.985853E3,1.3656175E2,-3.1224048E3],"categories":[0,1,2,4,5,8,9,10,12,13,14,15,17,0,1,2,3,4,5,6,8,9,10,11,12,13,14,15,17,0,1,2,3,8,9,10,11,12,13,14,15,16,17,18,19,20,21,22,0,1,2,3,4,5,6,7,8,9,11,12,13,14,16,3,4,5,6,7,10,12,1,4,6,7,8,9,11,12,0,0,1,2,3,5,6,9,10,11,12,0,1,2,3,4,6,7,8,10,11,12,13,15,16,17,0,3,4,5,6,7,8,9,11,12,13,14,16,17,0,0,1,2,4,5,6,7,8,9,10,11,12,0,1,2,3,4,5,6,7,8,9,11,12,13,14,16,17,1,2,3,4,5,6,7,8,9,11,12,0,1,2,3,4,5,6,7,8,9,10,11,12,13,14,15,16,17,18,19,20,21,0,8,10,12,13,14,20,0,3,4,5,6,7,8,9,10,11,12,0,1,2,3,4,7,8,9,10,11,12,13,14,15,16,17,18,19,20,21,22,0,1,2,3,4,5,6,7,8,9,10,11,12,13,14,15,16,0,1,2,3,4,7,8,9,10,11,12,13,14,15,16,17,18,19,20,21,22,0,1,2,3,4,5,7,8,9,10,11,12,13,14,15,16,17,18,19,20,21,22,0,1,0,4,15,18,0,1,11,0,2,3,4,5,6,7,8,9,10,11,12,4,8,12,13,0,8,10,12,17],"categories_nodes":[0,1,2,5,6,7,8,9,10,11,12,16,18,19,21,23,25,29,30,31,32,33,35,36,38,39,40,41,42,44],"categories_segments":[0,13,29,48,63,70,78,79,89,104,118,119,131,147,158,180,187,198,219,236,257,279,281,282,283,285,288,300,304,308],"categories_sizes":[13,16,19,15,7,8,1,10,15,14,1,12,16,11,22,7,11,21,17,21,22,2,1,1,2,3,12,4,4,1],"default_left":[1,1,1,0,1,1,1,1,1,1,1,1,1,0,0,1,1,1,1,1,0,1,1,1,0,1,0,0,0,1,1,1,1,1,0,1,1,0,1,1,1,1,1,0,1,0,0,0,0,0,0,0,0,0,0,0,0,0,0,0,0,0,0,0,0,0,0,0,0,0,0,0,0,0,0,0,0,0,0],"id":16,"left_children":[1,3,5,-1,7,9,11,13,15,17,19,21,23,-1,-1,25,27,29,31,33,35,37,39,41,43,45,-1,-1,-1,47,49,51,53,55,57,59,61,63,65,67,69,71,73,75,